{"learner":{"attributes":{"scikit_learn":"{\"_estimator_type\": \"classifier\"}"},"feature_names":["L3_S29_F3464","L3_S29_F3470","L3_S29_F3379","L3_S29_F3407","L3_S29_F3412","L3_S29_F3373","L0_S7_F138","L0_S6_F122","L0_S20_F461","L0_S8_F144","L3_S29_F3315","L3_S29_F3439","L3_S29_F3321","L3_S29_F3385","L0_S0_F6","L0_S0_F4","L3_S29_F3324","L3_S29_F3367","L3_S29_F3360","L3_S29_F3398","L0_S0_F20","L0_S0_F22","L3_S29_F3354","L3_S29_F3452","L3_S29_F3351","L3_S29_F3458","L3_S29_F3461","L3_S29_F3467","L3_S30_F3744","L3_S30_F3749","L0_S2_F60","L0_S2_F44","L0_S3_F80","L0_S3_F72","L0_S3_F96","L3_S29_F3427","L3_S33_F3859","L0_S6_F118","L0_S7_F136","L0_S0_F10","L3_S30_F3534","L3_S30_F3559","L3_S29_F3318","L3_S29_F3421","L3_S29_F3348","L3_S29_F3395","L3_S29_F3345","L3_S29_F3401","L3_S29_F3339","L3_S29_F3455","L3_S29_F3342","L3_S29_F3449","L3_S30_F3704","L3_S30_F3519","L3_S30_F3754","L3_S30_F3779","L3_S30_F3789","L3_S30_F3814","L3_S30_F3824","L3_S30_F3554","L3_S30_F3799","L3_S30_F3764","L0_S12_F336","L3_S30_F3759","L3_S30_F3579","L0_S2_F36","L3_S33_F3855","L3_S33_F3861","L3_S33_F3863","L0_S12_F350","L0_S12_F352","L3_S30_F3574","L3_S30_F3774","L3_S30_F3589","L3_S30_F3669","L3_S30_F3679","L3_S29_F3357","L3_S29_F3404","L3_S35_F3896","L3_S48_F4193","L0_S14_F362","L3_S33_F3865","L3_S33_F3857","L3_S30_F3689","L3_S30_F3809","L3_S29_F3433","L0_S15_F403","L0_S0_F16","L3_S29_F3430","L0_S0_F18","L3_S29_F3327","L3_S29_F3442","L0_S11_F314","L3_S29_F3336","L3_S29_F3370","L3_S30_F3804","L0_S15_F397","L3_S29_F3333","L3_S29_F3388","L0_S5_F116","L3_S29_F3382","L3_S29_F3376","L0_S1_F28","L3_S30_F3514","L3_S30_F3539","L3_S36_F3920","L3_S36_F3924","L0_S15_F415","L0_S14_F386","L0_S0_F14","L0_S1_F24","L2_S26_F3077","L3_S30_F3609","L2_S26_F3125","L2_S26_F3036","L3_S29_F3330","L3_S29_F3424","L3_S29_F3436","L0_S14_F370","L1_S24_F1842","L0_S11_F298","L0_S19_F455","L0_S0_F2","L0_S0_F8","L3_S30_F3829","L0_S5_F114","L3_S30_F3569","L0_S13_F356","L2_S26_F3055","L0_S11_F302","L2_S26_F3073","L2_S26_F3047","L3_S30_F3629","L1_S24_F1844","L3_S30_F3639","L3_S30_F3649","L3_S36_F3918","L3_S36_F3922","L1_S24_F766","L1_S24_F780","L1_S24_F785","L3_S30_F3769","L0_S11_F322","L0_S0_F0","L1_S24_F775","L1_S24_F1573","L1_S25_F2136","L3_S29_F3479","L1_S25_F1865","L1_S24_F1763","L1_S24_F1728","L0_S9_F195","L1_S24_F1637","L1_S24_F1808","L0_S18_F439","L2_S27_F3218","L2_S27_F3170","L3_S30_F3794","L0_S6_F132","L0_S15_F418","L0_S13_F354","L1_S25_F2164","L1_S24_F1713","L0_S22_F586","L0_S17_F433","L3_S35_F3894","L2_S26_F3113","L1_S24_F1718","L0_S10_F259","L2_S27_F3129","L1_S24_F1831","L2_S26_F3069","L2_S27_F3144","L0_S21_F512","L2_S27_F3133","L1_S24_F1569","L0_S17_F431","L0_S23_F651","L1_S24_F1836","L1_S24_F1575","L2_S27_F3148","L2_S27_F3155","L0_S11_F282","L0_S11_F294","L1_S25_F2167","L2_S26_F3117","L1_S24_F1571","L0_S16_F421","L0_S12_F348","L0_S11_F310","L1_S24_F1834","L1_S24_F1567","L2_S26_F3051","L0_S12_F340","L0_S12_F334","L0_S12_F344","L1_S25_F2170","L1_S24_F1846","L2_S27_F3140","L2_S26_F3121"],"feature_types":["float","float","float","float","float","float","float","float","float","float","float","float","float","float","float","float","float","float","float","float","float","float","float","float","float","float","float","float","float","float","float","float","float","float","float","float","float","float","float","float","float","float","float","float","float","float","float","float","float","float","float","float","float","float","float","float","float","float","float","float","float","float","float","float","float","float","float","float","float","float","float","float","float","float","float","float","float","float","float","float","float","float","float","float","float","float","float","float","float","float","float","float","float","float","float","float","float","float","float","float","float","float","float","float","float","float","float","float","float","float","float","float","float","float","float","float","float","float","float","float","float","float","float","float","float","float","float","float","float","float","float","float","float","float","float","float","float","float","float","float","float","float","float","float","float","float","float","float","float","float","float","float","float","float","float","float","float","float","float","float","float","float","float","float","float","float","float","float","float","float","float","float","float","float","float","float","float","float","float","float","float","float","float","float","float","float","float","float","float","float","float","float","float","float","float","float","float","float","float","float"],"gradient_booster":{"model":{"cats":{"enc":[],"feature_segments":[],"sorted_idx":[]},"gbtree_model_param":{"num_parallel_tree":"1","num_trees":"100"},"iteration_indptr":[0,1,2,3,4,5,6,7,8,9,10,11,12,13,14,15,16,17,18,19,20,21,22,23,24,25,26,27,28,29,30,31,32,33,34,35,36,37,38,39,40,41,42,43,44,45,46,47,48,49,50,51,52,53,54,55,56,57,58,59,60,61,62,63,64,65,66,67,68,69,70,71,72,73,74,75,76,77,78,79,80,81,82,83,84,85,86,87,88,89,90,91,92,93,94,95,96,97,98,99,100],"tree_info":[0,0,0,0,0,0,0,0,0,0,0,0,0,0,0,0,0,0,0,0,0,0,0,0,0,0,0,0,0,0,0,0,0,0,0,0,0,0,0,0,0,0,0,0,0,0,0,0,0,0,0,0,0,0,0,0,0,0,0,0,0,0,0,0,0,0,0,0,0,0,0,0,0,0,0,0,0,0,0,0,0,0,0,0,0,0,0,0,0,0,0,0,0,0,0,0,0,0,0,0],"trees":[{"base_weights":[-6.403269E-8,8.696277E0,-4.2943083E-2,4.879127E0,8.789535E-1,2.831785E-1,-3.0490816E-1,-1.5794027E-1,5.6123936E-1,3.2019565E0,2.0617634E-1,-1.0432644E-1,-5.2579683E-1,3.2262595E0,1.0273397E0,-5.2764356E-1,3.7897894E-1,-3.496096E-1,1.0608794E1,-5.5975044E-1,1.8003279E0,1.9016544E0,-3.1488207E-1,8.186888E-1,-6.389801E-1,6.278463E-1,3.6535148E-2,1.5342194E0,-3.780546E-1,4.9904304E0,-3.4310105E-1,-5.7524806E-1,4.2909297E-1,-6.617485E-2,1.0417888E0,8.52768E-1,-1.7308705E-1,1.4793275E-1,-2.1151309E-1,-6.1067898E-2,8.765128E-1,-2.167109E-1,1.2477754E-1,1.1205483E-1,3.8042516E-1,-1.4942702E-2,4.1498277E-1,9.558904E-1,-8.610818E-2,5.5188518E-2,-1.3690259E-1,-1.5247244E-1,-1.656713E-3,-3.410886E-2,-1.9282953E-1],"categories":[],"categories_nodes":[],"categories_segments":[],"categories_sizes":[],"default_left":[0,0,0,0,0,0,0,0,0,0,0,0,0,0,0,0,0,0,0,0,0,0,0,0,0,0,0,0,0,0,0,0,0,0,0,0,0,0,0,0,0,0,0,0,0,0,0,0,0,0,0,0,0,0,0],"id":0,"left_children":[1,3,5,-1,7,9,11,-1,-1,13,15,17,19,-1,21,23,25,27,29,31,33,35,37,39,41,43,45,47,49,-1,51,53,-1,-1,-1,-1,-1,-1,-1,-1,-1,-1,-1,-1,-1,-1,-1,-1,-1,-1,-1,-1,-1,-1,-1],"loss_changes":[3.290478E2,2.4183588E2,7.499236E1,0E0,5.427183E0,8.723722E1,2.150901E1,0E0,0E0,1.5291257E2,4.8652817E1,6.772606E2,1.9282013E1,0E0,1.0992818E1,1.1502529E1,2.6383892E1,1.4059631E1,3.864508E2,7.879631E0,1.2817285E1,1.4479553E1,1.719502E0,1.3564412E1,6.301096E0,2.8735703E1,1.535686E1,1.2768046E1,1.1022652E1,0E0,1.6596782E-1,7.0244217E0,0E0,0E0,0E0,0E0,0E0,0E0,0E0,0E0,0E0,0E0,0E0,0E0,0E0,0E0,0E0,0E0,0E0,0E0,0E0,0E0,0E0,0E0,0E0],"parents":[2147483647,0,0,1,1,2,2,4,4,5,5,6,6,9,9,10,10,11,11,12,12,14,14,15,15,16,16,17,17,18,18,19,19,20,20,21,21,22,22,23,23,24,24,25,25,26,26,27,27,28,28,30,30,31,31],"right_children":[2,4,6,-1,8,10,12,-1,-1,14,16,18,20,-1,22,24,26,28,30,32,34,36,38,40,42,44,46,48,50,-1,52,54,-1,-1,-1,-1,-1,-1,-1,-1,-1,-1,-1,-1,-1,-1,-1,-1,-1,-1,-1,-1,-1,-1,-1],"split_conditions":[-2.06E-1,2.9E-1,6.3E-2,4.879127E0,-1.2E-2,-2.01E-1,1E-3,-1.5794027E-1,5.6123936E-1,-4.4E-2,-2.9E-2,0E0,2E-1,3.2262595E0,1.6E-2,-5.5E-2,2E-3,-2.7E-1,1.7E-2,1.98E-1,-4E-3,8E-2,-1.1E-1,5.5E-2,6.2E-2,0E0,2.1E-1,-2.6E-2,-1.81E-1,4.9904304E0,7.5E-2,-7.8E-2,4.2909297E-1,-6.617485E-2,1.0417888E0,8.52768E-1,-1.7308705E-1,1.4793275E-1,-2.1151309E-1,-6.1067898E-2,8.765128E-1,-2.167109E-1,1.2477754E-1,1.1205483E-1,3.8042516E-1,-1.4942702E-2,4.1498277E-1,9.558904E-1,-8.610818E-2,5.5188518E-2,-1.3690259E-1,-1.5247244E-1,-1.656713E-3,-3.410886E-2,-1.9282953E-1],"split_indices":[197,119,3,0,147,133,82,0,0,197,3,82,186,0,171,95,81,130,66,124,147,170,28,81,143,81,50,185,24,0,28,158,0,0,0,0,0,0,0,0,0,0,0,0,0,0,0,0,0,0,0,0,0,0,0],"split_type":[0,0,0,0,0,0,0,0,0,0,0,0,0,0,0,0,0,0,0,0,0,0,0,0,0,0,0,0,0,0,0,0,0,0,0,0,0,0,0,0,0,0,0,0,0,0,0,0,0,0,0,0,0,0,0],"sum_hessian":[8.7911597E2,3.3296518E0,8.757863E2,1.1428508E0,2.186801E0,3.9008575E2,4.857006E2,1.098895E0,1.087906E0,8.983466E0,3.8110226E2,2.5532275E2,2.3037784E2,1.1263673E0,7.857099E0,7.224685E1,3.0885544E2,2.5055354E2,4.769204E0,2.2781192E2,2.5659199E0,4.5054693E0,3.3516297E0,5.032939E0,6.721391E1,1.7838362E2,1.304718E2,2.939544E0,2.47614E2,2.741743E0,2.0274613E0,2.2675697E2,1.0549392E0,1.5549364E0,1.0109833E0,3.159323E0,1.3461463E0,1.0054889E0,2.3461409E0,3.9944832E0,1.0384557E0,6.258207E1,4.631842E0,1.2880148E2,4.958214E1,1.2351579E2,6.956005E0,1.1483452E0,1.7911988E0,3.0109722E1,2.1750429E2,1.0219723E0,1.0054889E0,2.9280056E1,1.9747693E2],"tree_param":{"num_deleted":"0","num_feature":"200","num_nodes":"55","size_leaf_vector":"1"}},{"base_weights":[-2.9424968E-1,1.2489682E-1,-6.2633586E-1,-2.551802E-1,3.2571524E-1,-3.4243065E-1,-8.214475E-1,-4.878758E-2,-6.344767E-1,6.148976E-1,-4.386088E-3,-1.3200114E0,-2.7064848E-1,-1.2266576E0,-5.182706E-1,9.060778E-1,-1.2179361E-1,-6.951928E-1,2.3273236E-1,2.656148E-1,1.5663441E1,-6.265592E-2,2.1253202E0,1.2015923E-1,-1.4874408E0,-2.9277217E-1,5.5952847E-1,-1.2770813E0,-4.0414475E-2,-1.5730736E0,-4.0357217E-1,-2.815803E-1,7.247337E-1,3.6282893E-2,-8.322127E-1,-7.558071E-2,6.2030894E-1,5.444519E0,1.4559786E0,5.7117206E-1,-1.01318315E-1,1.0609299E0,-1.6399786E-1,-8.0929175E-2,-4.667719E-1,4.6413308E-1,-3.1425202E-1,-1.2948236E0,1.6367093E-1,-6.3432384E-1,6.5477335E-1,-1.5237011E-1,-4.8572233E-1,-4.607581E-1,6.784045E-1,3.863685E-1,-1.0020694E-1,3.217005E-2,1.2701058E0,-2.4401653E-1,2.5742516E-1,-2.8042012E-1,7.8838706E-2,-4.7377553E-2,3.834834E-1,6.9040515E-2,4.5745957E-1,-4.897901E-2,3.0273223E-1,2.8558934E-1,-1.01863846E-1,-3.980893E-1,-5.420431E-2,-2.6498E-1,2.3626648E-2,-2.5821848E-2,3.401233E-1,-1.4954445E-1,2.0721698E-1,-1.8044626E-2,1.0285792E0],"categories":[],"categories_nodes":[],"categories_segments":[],"categories_sizes":[],"default_left":[0,0,0,0,0,0,0,0,0,0,0,0,0,0,0,0,0,0,0,0,0,0,0,0,0,0,0,0,0,0,0,0,0,0,0,0,0,0,0,0,0,0,0,0,0,0,0,0,0,0,0,0,0,0,0,0,0,0,0,0,0,0,0,0,0,0,0,0,0,0,0,0,0,0,0,0,0,0,0,0,0],"id":1,"left_children":[1,3,5,7,9,11,13,15,17,19,21,23,25,27,29,-1,31,33,-1,35,37,39,41,-1,43,45,-1,47,49,51,53,55,57,59,61,63,65,-1,-1,-1,67,-1,-1,-1,-1,-1,69,71,-1,73,75,-1,-1,77,79,-1,-1,-1,-1,-1,-1,-1,-1,-1,-1,-1,-1,-1,-1,-1,-1,-1,-1,-1,-1,-1,-1,-1,-1,-1,-1],"loss_changes":[1.4586319E2,3.5485214E1,3.2097992E1,1.2565501E1,2.9014496E1,1.6470627E1,4.1837265E1,2.395855E1,5.387331E0,8.473772E2,1.7868078E1,5.246969E0,1.1161346E1,8.755173E0,2.350093E1,0E0,1.4244831E1,5.5235786E0,0E0,1.9331272E1,1.0176941E1,1.084319E1,1.6391518E1,0E0,8.246689E-1,9.3079605E0,0E0,5.272522E0,3.320346E0,1.194458E-1,1.1528746E1,7.676618E0,3.586566E1,7.405E0,5.4325943E0,9.355861E0,2.726176E1,0E0,0E0,0E0,9.679492E0,0E0,0E0,0E0,0E0,0E0,7.416641E0,4.77829E0,0E0,8.332921E-1,1.4224533E0,0E0,0E0,7.8490715E0,1.9511341E1,0E0,0E0,0E0,0E0,0E0,0E0,0E0,0E0,0E0,0E0,0E0,0E0,0E0,0E0,0E0,0E0,0E0,0E0,0E0,0E0,0E0,0E0,0E0,0E0,0E0,0E0],"parents":[2147483647,0,0,1,1,2,2,3,3,4,4,5,5,6,6,7,7,8,8,9,9,10,10,11,11,12,12,13,13,14,14,16,16,17,17,19,19,20,20,21,21,22,22,24,24,25,25,27,27,28,28,29,29,30,30,31,31,32,32,33,33,34,34,35,35,36,36,40,40,46,46,47,47,49,49,50,50,53,53,54,54],"right_children":[2,4,6,8,10,12,14,16,18,20,22,24,26,28,30,-1,32,34,-1,36,38,40,42,-1,44,46,-1,48,50,52,54,56,58,60,62,64,66,-1,-1,-1,68,-1,-1,-1,-1,-1,70,72,-1,74,76,-1,-1,78,80,-1,-1,-1,-1,-1,-1,-1,-1,-1,-1,-1,-1,-1,-1,-1,-1,-1,-1,-1,-1,-1,-1,-1,-1,-1,-1],"split_conditions":[6.3E-2,1.5E-2,-1E-3,1E-3,2E-3,-1.64E-1,1.1E-2,-3.26E-1,9E-2,0E0,1.2E-1,-2.97E-1,2.02E-1,7E-2,-2.06E-1,9.060778E-1,6.8E-2,-5.9E-2,2.3273236E-1,-6E-3,-6.3E-2,-1.66E-1,-6E-2,1.2015923E-1,-5.4E-2,-2.2E-1,5.5952847E-1,4.18E-1,8.9E-2,-6.6E-2,1.65E-1,-2.74E-1,-5E-3,6.3E-2,5.1E-2,8.7E-2,3.8E-2,5.444519E0,1.4559786E0,5.7117206E-1,1.25E-1,1.0609299E0,-1.6399786E-1,-8.0929175E-2,-4.667719E-1,4.6413308E-1,-2.4E-1,4.47E-1,1.6367093E-1,4E-2,-3.2E-2,-1.5237011E-1,-4.8572233E-1,5.94E-1,1.14E-1,3.863685E-1,-1.0020694E-1,3.217005E-2,1.2701058E0,-2.4401653E-1,2.5742516E-1,-2.8042012E-1,7.8838706E-2,-4.7377553E-2,3.834834E-1,6.9040515E-2,4.5745957E-1,-4.897901E-2,3.0273223E-1,2.8558934E-1,-1.01863846E-1,-3.980893E-1,-5.420431E-2,-2.6498E-1,2.3626648E-2,-2.5821848E-2,3.401233E-1,-1.4954445E-1,2.0721698E-1,-1.8044626E-2,1.0285792E0],"split_indices":[3,3,82,82,81,197,82,26,168,81,164,133,199,171,197,0,101,188,0,90,24,182,127,0,88,87,0,118,24,132,48,34,82,82,157,168,84,0,0,0,89,0,0,0,0,0,52,33,0,72,199,0,0,7,175,0,0,0,0,0,0,0,0,0,0,0,0,0,0,0,0,0,0,0,0,0,0,0,0,0,0],"split_type":[0,0,0,0,0,0,0,0,0,0,0,0,0,0,0,0,0,0,0,0,0,0,0,0,0,0,0,0,0,0,0,0,0,0,0,0,0,0,0,0,0,0,0,0,0,0,0,0,0,0,0,0,0,0,0,0,0,0,0,0,0,0,0,0,0,0,0,0,0,0,0,0,0,0,0,0,0,0,0,0,0],"sum_hessian":[1.0463601E3,4.6282455E2,5.835356E2,1.5990715E2,3.029174E2,2.3880606E2,3.4472955E2,1.0428793E2,5.5619225E1,1.6100641E2,1.41911E2,1.5146134E1,2.2365993E2,1.4623438E2,1.9849518E2,1.4851424E0,1.0280279E2,5.380958E1,1.8096422E0,1.5834872E2,2.6576877E0,1.3907637E2,2.834619E0,1.2197251E0,1.3926409E1,2.2222092E2,1.4390186E0,1.4019838E2,6.0359864E0,1.8220339E1,1.8027483E2,8.704074E1,1.576205E1,8.60536E0,4.520422E1,8.1111244E1,7.723747E1,1.6089993E0,1.0486883E0,1.7513154E0,1.3732506E2,1.6432623E0,1.1913568E0,1.0043272E0,1.2922082E1,1.7447659E0,2.2047615E2,1.3913359E2,1.064788E0,3.3023174E0,2.7336688E0,1.252773E0,1.6967566E1,1.7177037E2,8.50446E0,2.0526378E0,8.4988106E1,1.4279691E1,1.4823586E0,4.235969E0,4.369391E0,4.1468105E1,3.7361164E0,7.729345E1,3.8177943E0,5.4837936E1,2.2399538E1,1.3087706E2,6.4480004E0,3.6005008E0,2.1687564E2,1.3504678E2,4.0868206E0,2.27087E0,1.0314474E0,1.3954928E0,1.3381761E0,1.6687067E2,4.8997107E0,7.475164E0,1.029296E0],"tree_param":{"num_deleted":"0","num_feature":"200","num_nodes":"81","size_leaf_vector":"1"}},{"base_weights":[-3.1561938E-1,-1.5521201E-1,-5.5166274E-1,-2.4492659E-1,2.3007044E-1,-1.2547369E0,-4.973148E-1,5.9673004E-3,-3.9067802E-1,-4.9268457E-1,4.015801E-1,1.36482E-1,-1.3432224E0,-2.5454134E-1,-6.611088E-1,1.9500382E0,-4.475931E-2,-5.5572915E-1,-1.4658348E-1,4.3867147E-1,-6.5140206E-1,9.528092E-1,7.216485E-2,2.3584902E-2,-4.224185E-1,8.8346434E-1,-3.2088184E-1,-9.973529E-1,-4.3867755E-1,-4.4819836E-2,1.0666815E0,1.2122855E0,-1.0613148E-1,-1.3076138E-1,-9.0055144E-1,-7.295193E-1,2.2276293E-2,8.810021E-1,-8.9606065E-1,1.6105516E0,2.4792458E-1,2.0008261E0,-3.9146382E-2,2.427669E0,-2.0032203E-1,-3.4971613E-1,5.978731E-1,-1.0632594E0,7.2141945E-1,-4.828831E-1,1.0640533E0,1.4631473E-1,-1.6127227E-1,7.455616E-1,-8.321984E-3,9.820369E-2,-8.729608E-2,-7.2389595E-2,4.4797722E-1,1.0888908E-2,-3.3671963E-1,-2.7560574E-1,5.061081E-3,7.0351064E-2,-1.615925E-1,-1.5632798E-1,5.1337624E-1,1.4564377E-1,-2.9970562E-1,6.5855935E-2,7.492211E-1,-3.602537E-2,5.4508936E-1,1.0257891E0,-3.9350018E-2,1.2104325E-1,-1.0721951E-1,1.1066182E0,-3.1966493E-2,4.034648E-1,-2.4250026E-1,4.2718878E-1,-1.1309202E-1,-3.3440223E-1,5.527539E-2,2.1761768E-1,-1.6114844E-1,7.486344E-1,-1.05225705E-1],"categories":[],"categories_nodes":[],"categories_segments":[],"categories_sizes":[],"default_left":[0,0,0,0,0,0,0,0,0,0,0,0,0,0,0,0,0,0,0,0,0,0,0,0,0,0,0,0,0,0,0,0,0,0,0,0,0,0,0,0,0,0,0,0,0,0,0,0,0,0,0,0,0,0,0,0,0,0,0,0,0,0,0,0,0,0,0,0,0,0,0,0,0,0,0,0,0,0,0,0,0,0,0,0,0,0,0,0,0],"id":2,"left_children":[1,3,5,7,9,11,13,15,17,19,21,-1,23,25,27,29,31,33,35,-1,37,39,41,-1,-1,43,45,47,49,51,-1,53,55,57,59,61,63,65,67,69,71,73,75,77,79,81,-1,83,-1,85,87,-1,-1,-1,-1,-1,-1,-1,-1,-1,-1,-1,-1,-1,-1,-1,-1,-1,-1,-1,-1,-1,-1,-1,-1,-1,-1,-1,-1,-1,-1,-1,-1,-1,-1,-1,-1,-1,-1],"loss_changes":[3.904975E1,2.1375954E1,1.5340874E1,1.8314861E1,1.4702484E1,5.047127E0,1.5319717E1,1.8331375E1,1.26808815E1,8.05496E0,1.7203564E1,0E0,2.7043114E0,1.22526E1,1.6910286E1,1.5299089E1,1.4113524E1,2.752372E1,1.2728812E1,0E0,8.986352E0,1.6059216E1,1.3092673E1,0E0,0E0,1.5547754E1,1.074049E1,2.3087158E1,9.905973E0,1.0744617E0,0E0,1.3515452E1,1.4018376E1,1.57384815E1,2.1648392E1,4.115328E0,1.2162685E1,4.9826856E0,3.2372274E0,2.1881363E1,1.0795037E1,1.0509947E1,8.355925E0,1.24975605E1,6.9231796E0,7.7663193E0,0E0,6.011154E0,0E0,9.442375E0,9.689608E0,0E0,0E0,0E0,0E0,0E0,0E0,0E0,0E0,0E0,0E0,0E0,0E0,0E0,0E0,0E0,0E0,0E0,0E0,0E0,0E0,0E0,0E0,0E0,0E0,0E0,0E0,0E0,0E0,0E0,0E0,0E0,0E0,0E0,0E0,0E0,0E0,0E0,0E0],"parents":[2147483647,0,0,1,1,2,2,3,3,4,4,5,5,6,6,7,7,8,8,9,9,10,10,12,12,13,13,14,14,15,15,16,16,17,17,18,18,20,20,21,21,22,22,25,25,26,26,27,27,28,28,29,29,31,31,32,32,33,33,34,34,35,35,36,36,37,37,38,38,39,39,40,40,41,41,42,42,43,43,44,44,45,45,47,47,49,49,50,50],"right_children":[2,4,6,8,10,12,14,16,18,20,22,-1,24,26,28,30,32,34,36,-1,38,40,42,-1,-1,44,46,48,50,52,-1,54,56,58,60,62,64,66,68,70,72,74,76,78,80,82,-1,84,-1,86,88,-1,-1,-1,-1,-1,-1,-1,-1,-1,-1,-1,-1,-1,-1,-1,-1,-1,-1,-1,-1,-1,-1,-1,-1,-1,-1,-1,-1,-1,-1,-1,-1,-1,-1,-1,-1,-1,-1],"split_conditions":[6.6E-2,3.8E-2,-2.06E-1,-1.8E-2,-2.1E-2,-3.26E-1,-2E-3,-1.85E-1,2.6E-2,-5.5E-2,-2E-3,1.36482E-1,-7.1E-2,-8.4E-2,1E-3,1.4E-2,-1.29E-1,5.1E-2,-3.3E-2,4.3867147E-1,-2.23E-1,5.5E-2,-2.6E-2,2.3584902E-2,-4.224185E-1,-9.5E-2,8.76E-1,8.3E-2,1.3E-1,-1.1E-1,1.0666815E0,-1.6E-2,-1.89E-1,3E-2,-2.8E-2,3.7E-2,4.6E-2,5.1E-2,-1.39E-1,-4.2E-2,1.81E-1,4.4E-2,-1.5E-1,-2E-3,-9.8E-2,-1.31E-1,5.978731E-1,3.6E-2,7.2141945E-1,-1.15E-1,-2E-2,1.4631473E-1,-1.6127227E-1,7.455616E-1,-8.321984E-3,9.820369E-2,-8.729608E-2,-7.2389595E-2,4.4797722E-1,1.0888908E-2,-3.3671963E-1,-2.7560574E-1,5.061081E-3,7.0351064E-2,-1.615925E-1,-1.5632798E-1,5.1337624E-1,1.4564377E-1,-2.9970562E-1,6.5855935E-2,7.492211E-1,-3.602537E-2,5.4508936E-1,1.0257891E0,-3.9350018E-2,1.2104325E-1,-1.0721951E-1,1.1066182E0,-3.1966493E-2,4.034648E-1,-2.4250026E-1,4.2718878E-1,-1.1309202E-1,-3.3440223E-1,5.527539E-2,2.1761768E-1,-1.6114844E-1,7.486344E-1,-1.05225705E-1],"split_indices":[24,124,197,81,141,150,82,73,81,160,110,0,117,127,82,16,166,3,110,0,7,147,173,0,0,69,111,76,72,71,0,147,52,85,82,84,72,157,78,143,22,93,29,101,36,160,0,171,0,95,53,0,0,0,0,0,0,0,0,0,0,0,0,0,0,0,0,0,0,0,0,0,0,0,0,0,0,0,0,0,0,0,0,0,0,0,0,0,0],"split_type":[0,0,0,0,0,0,0,0,0,0,0,0,0,0,0,0,0,0,0,0,0,0,0,0,0,0,0,0,0,0,0,0,0,0,0,0,0,0,0,0,0,0,0,0,0,0,0,0,0,0,0,0,0,0,0,0,0,0,0,0,0,0,0,0,0,0,0,0,0,0,0,0,0,0,0,0,0,0,0,0,0,0,0,0,0,0,0,0,0],"sum_hessian":[1.0326022E3,6.157893E2,4.1681284E2,4.9977823E2,1.1601109E2,2.832307E1,3.8848978E2,1.840011E2,3.1577713E2,2.1890442E1,9.412065E1,1.1899521E0,2.7133118E1,1.5753996E2,2.3094981E2,3.726915E0,1.8027419E2,1.8762961E2,1.2814752E2,1.0270787E0,2.0863363E1,3.449904E1,5.9621613E1,1.1741037E0,2.5959015E1,7.99949E0,1.4954047E2,9.0563385E1,1.4038643E2,2.0954633E0,1.6314518E0,7.518793E0,1.7275539E2,8.4665245E1,1.0296437E2,2.803728E1,1.00110245E2,2.5142934E0,1.834907E1,1.7181646E1,1.7317392E1,2.3270118E0,5.72946E1,2.7876258E0,5.211864E0,1.4853825E2,1.0022156E0,8.95167E1,1.0466852E0,1.37034E2,3.3524392E0,1.0119939E0,1.0834693E0,3.2146802E0,4.304113E0,5.1416164E1,1.2133923E2,8.006698E1,4.598263E0,1.9874008E1,8.309036E1,2.2184065E1,5.853213E0,7.3052315E1,2.705793E1,1.0736034E0,1.44069E0,1.0149317E0,1.7334137E1,7.1750593E0,1.0006588E1,1.4775379E1,2.5420127E0,1.0347574E0,1.2922546E0,2.3852636E1,3.3441967E1,1.5571872E0,1.2304386E0,1.1294756E0,4.0823884E0,1.4725909E0,1.4706566E2,8.6075676E1,3.4410238E0,5.359669E0,1.3167432E2,1.2867709E0,2.0656683E0],"tree_param":{"num_deleted":"0","num_feature":"200","num_nodes":"89","size_leaf_vector":"1"}},{"base_weights":[-2.4323525E-1,-1.2270827E-1,-4.5007616E-1,-1.5850806E-1,4.5913017E-1,-2.4549872E-1,-6.022368E-1,5.343284E-1,-1.9006883E-1,2.2782788E0,1.2289906E-2,1.0340738E0,-3.0616418E-1,-6.2673825E-1,4.4138244E-1,1.772974E0,7.786931E-2,-4.9049923E-1,-1.2622404E-1,8.533008E-2,2.999629E0,-1.6572699E-1,5.361916E-1,2.2803137E0,-6.3617295E-3,3.1097838E-1,-4.3729118E-1,-6.5439993E-1,1.1341048E0,3.1985085E0,-2.943607E-1,1.603076E0,-2.5970635E-1,3.7537426E-1,-6.2650824E-1,-1.496204E-1,9.5969707E-1,1.2304289E0,1.1398596E0,-3.8031882E-1,1.2459742E0,1.1732568E0,-4.1627586E-2,-2.1920563E-1,3.282512E-1,-6.08252E-1,9.9098325E-1,-5.110493E-1,4.100896E-1,8.665E-1,-6.7526823E-1,-7.335093E-2,6.519054E-1,-6.1585274E-2,1.3395712E0,1.472308E-1,-2.2802992E-1,-7.056436E-2,8.356487E-1,-2.3812915E-1,1.4991161E-1,-3.5285097E-2,4.5922193E-1,-5.4415483E-2,-2.562343E-1,-5.033254E-2,2.806817E-1,-1.0484905E-1,5.096901E-1,4.60783E-1,7.188262E-2,2.790755E-1,-2.0180814E-1,7.929136E-1,-8.740289E-2,1.0875896E-1,-2.6998603E-1,8.725311E-1,1.2030282E-1,8.9133084E-2,-1.7459938E-1,-1.8674582E-1,3.494354E-1,-1.6349426E-1,5.842299E-1,5.908993E-2,-2.1412286E-1],"categories":[],"categories_nodes":[],"categories_segments":[],"categories_sizes":[],"default_left":[0,0,0,0,0,0,0,0,0,0,0,0,0,0,0,0,0,0,0,0,0,0,0,0,0,0,0,0,0,0,0,0,0,0,0,0,0,0,0,0,0,0,0,0,0,0,0,0,0,0,0,0,0,0,0,0,0,0,0,0,0,0,0,0,0,0,0,0,0,0,0,0,0,0,0,0,0,0,0,0,0,0,0,0,0,0,0],"id":3,"left_children":[1,3,5,7,9,11,13,15,17,19,21,23,25,27,-1,29,31,33,35,-1,37,39,-1,41,43,45,47,49,51,53,55,57,59,61,63,65,67,-1,69,71,73,-1,-1,-1,-1,75,77,79,81,83,85,-1,-1,-1,-1,-1,-1,-1,-1,-1,-1,-1,-1,-1,-1,-1,-1,-1,-1,-1,-1,-1,-1,-1,-1,-1,-1,-1,-1,-1,-1,-1,-1,-1,-1,-1,-1],"loss_changes":[2.4624264E1,1.3130044E1,1.1185989E1,1.303048E1,2.9715559E1,1.2502891E1,1.1494881E1,1.457506E1,1.0799177E1,9.5167885E0,9.895999E0,9.52457E0,1.2327449E1,1.0794495E1,0E0,2.145755E1,1.0745383E1,1.1881884E1,1.2042726E1,0E0,5.959366E0,9.115743E0,0E0,1.3716738E1,4.7808113E0,1.7470526E1,8.001492E0,7.0541687E0,5.627045E0,1.9045605E1,1.7468084E0,8.860569E0,7.4074893E0,8.183208E0,8.542332E0,9.206793E0,1.028455E1,0E0,8.142557E-1,1.0407822E1,9.356705E0,0E0,0E0,0E0,0E0,3.750966E0,1.6810452E1,6.774275E0,8.936585E0,5.938695E0,6.9069138E0,0E0,0E0,0E0,0E0,0E0,0E0,0E0,0E0,0E0,0E0,0E0,0E0,0E0,0E0,0E0,0E0,0E0,0E0,0E0,0E0,0E0,0E0,0E0,0E0,0E0,0E0,0E0,0E0,0E0,0E0,0E0,0E0,0E0,0E0,0E0,0E0],"parents":[2147483647,0,0,1,1,2,2,3,3,4,4,5,5,6,6,7,7,8,8,9,9,10,10,11,11,12,12,13,13,15,15,16,16,17,17,18,18,20,20,21,21,23,23,24,24,25,25,26,26,27,27,28,28,29,29,30,30,31,31,32,32,33,33,34,34,35,35,36,36,38,38,39,39,40,40,45,45,46,46,47,47,48,48,49,49,50,50],"right_children":[2,4,6,8,10,12,14,16,18,20,22,24,26,28,-1,30,32,34,36,-1,38,40,-1,42,44,46,48,50,52,54,56,58,60,62,64,66,68,-1,70,72,74,-1,-1,-1,-1,76,78,80,82,84,86,-1,-1,-1,-1,-1,-1,-1,-1,-1,-1,-1,-1,-1,-1,-1,-1,-1,-1,-1,-1,-1,-1,-1,-1,-1,-1,-1,-1,-1,-1,-1,-1,-1,-1,-1,-1],"split_conditions":[6.8E-2,1.17E-1,-2E-3,-2.96E-1,8E-3,-1.1E-1,5.83E-1,1.29E-1,-6E-2,-2.9E-2,1.9E-2,-8.7E-2,-8.9E-2,3.66E-1,4.4138244E-1,1.4E-2,-4.1E-2,-3.9E-2,1.43E-1,8.533008E-2,-1.1E-2,7.5E-2,5.361916E-1,-1E-3,2.23E-1,-2.4E-2,3.6E-2,-8E-2,0E0,-1.39E-1,-1E-3,2E-2,-7E-3,1.01E-1,-1.9E-2,1.55E-1,-2.7E-2,1.2304289E0,-1.3E-2,-3.7E-2,-1.2E-2,1.1732568E0,-4.1627586E-2,-2.1920563E-1,3.282512E-1,-1.44E-1,-1.57E-1,-1.18E-1,7.9E-2,1.7E-2,-1.15E-1,-7.335093E-2,6.519054E-1,-6.1585274E-2,1.3395712E0,1.472308E-1,-2.2802992E-1,-7.056436E-2,8.356487E-1,-2.3812915E-1,1.4991161E-1,-3.5285097E-2,4.5922193E-1,-5.4415483E-2,-2.562343E-1,-5.033254E-2,2.806817E-1,-1.0484905E-1,5.096901E-1,4.60783E-1,7.188262E-2,2.790755E-1,-2.0180814E-1,7.929136E-1,-8.740289E-2,1.0875896E-1,-2.6998603E-1,8.725311E-1,1.2030282E-1,8.9133084E-2,-1.7459938E-1,-1.8674582E-1,3.494354E-1,-1.6349426E-1,5.842299E-1,5.908993E-2,-2.1412286E-1],"split_indices":[24,162,82,24,197,192,30,28,105,72,24,81,29,59,0,16,122,48,164,0,170,81,0,124,2,63,48,85,18,64,93,54,124,97,82,168,69,0,178,84,74,0,0,0,0,22,39,158,40,29,95,0,0,0,0,0,0,0,0,0,0,0,0,0,0,0,0,0,0,0,0,0,0,0,0,0,0,0,0,0,0,0,0,0,0,0,0],"split_type":[0,0,0,0,0,0,0,0,0,0,0,0,0,0,0,0,0,0,0,0,0,0,0,0,0,0,0,0,0,0,0,0,0,0,0,0,0,0,0,0,0,0,0,0,0,0,0,0,0,0,0,0,0,0,0,0,0,0,0,0,0,0,0,0,0,0,0,0,0,0,0,0,0,0,0,0,0,0,0,0,0,0,0,0,0,0,0],"sum_hessian":[9.889552E2,6.258584E2,3.630968E2,5.902676E2,3.5590847E1,1.5598756E2,2.0710925E2,2.502291E1,5.652446E2,6.210086E0,2.9380762E1,6.3344345E0,1.4965314E2,2.0538014E2,1.7291118E0,5.9615316E0,1.9061377E1,9.78965E1,4.6734814E2,2.0202713E0,4.1898146E0,2.752673E1,1.8540318E0,2.3399444E0,3.9944904E0,2.5984905E1,1.2366823E2,2.028223E2,2.557845E0,3.2046168E0,2.7569149E0,2.7749655E0,1.6286411E1,1.3050874E1,8.484563E1,4.5833545E2,9.012699E0,1.8741511E0,2.3156636E0,2.4528728E1,2.9980016E0,1.0294093E0,1.310535E0,2.6116652E0,1.3828251E0,1.1093812E1,1.4891093E1,1.141309E2,9.537328E0,2.1967819E0,2.006255E2,1.4278215E0,1.1300236E0,1.0964139E0,2.108203E0,1.0064782E0,1.7504365E0,1.3997961E0,1.3751693E0,9.535396E0,6.751016E0,9.777179E0,3.2736955E0,2.9313965E1,5.5531662E1,4.516256E2,6.709838E0,3.4428678E0,5.569832E0,1.1177559E0,1.1979077E0,4.076065E0,2.0452663E1,1.1938268E0,1.8041748E0,2.507163E0,8.586649E0,2.5790946E0,1.2311998E1,8.953701E0,1.0517719E2,4.1012154E0,5.4361124E0,1.1677538E0,1.0290279E0,8.301768E0,1.9232375E2],"tree_param":{"num_deleted":"0","num_feature":"200","num_nodes":"87","size_leaf_vector":"1"}},{"base_weights":[-1.8861578E-1,-9.406406E-2,-3.6420292E-1,-2.7358624E-1,-6.846147E-3,-1.004501E0,-3.180977E-1,-3.149274E-1,1.0548543E0,5.452187E-1,-5.1099624E-2,1.475223E-1,-1.1143992E0,9.427105E-2,-3.8134184E-1,-3.716473E-1,7.406719E-1,2.094982E0,-2.1975732E-1,6.370524E-2,1.6298146E0,4.34607E-1,-1.1924552E-1,4.226879E-2,-3.5780522E-1,-7.3258944E-2,1.6016362E0,-3.968133E-1,4.907355E-1,1.2264928E0,-4.0775114E-1,-6.1061025E-1,1.710172E0,8.931499E-1,1.7153735E-1,1.4840683E-1,-1.9931605E-1,8.0969524E-1,-5.699703E-1,-3.334184E-1,2.4694445E0,1.774008E-1,1.7612271E0,-1.6995944E-1,4.1754356E-1,1.7353606E0,-2.331433E-1,-1.7647812E-1,8.737417E-1,-5.6105062E-2,-4.8551917E-1,6.694708E-1,-1.734891E-1,-2.5847438E-1,-8.748771E-2,-2.2798143E-1,-2.0173988E-3,7.846278E-1,-9.11652E-2,-1.3276163E-1,4.5411038E-1,1.5841827E-1,-2.577852E-1,-2.2411506E-1,9.820235E-2,-2.1927927E-1,1.0007405E0,4.5101544E-1,-2.0858673E-2,8.313104E-1,-2.0218752E-1,-6.626017E-2,1.4687106E-1,3.9859453E-1,-1.9616377E-2,-3.3976637E-2,8.503459E-1,4.4988197E-1,-1.10055394E-1,-9.986305E-2,2.6566496E-1,-1.5194207E-1,2.535401E-1],"categories":[],"categories_nodes":[],"categories_segments":[],"categories_sizes":[],"default_left":[0,0,0,0,0,0,0,0,0,0,0,0,0,0,0,0,0,0,0,0,0,0,0,0,0,0,0,0,0,0,0,0,0,0,0,0,0,0,0,0,0,0,0,0,0,0,0,0,0,0,0,0,0,0,0,0,0,0,0,0,0,0,0,0,0,0,0,0,0,0,0,0,0,0,0,0,0,0,0,0,0,0,0],"id":4,"left_children":[1,3,5,7,9,11,13,15,17,19,21,-1,23,25,27,29,31,33,35,37,39,41,43,-1,-1,45,47,49,-1,51,53,55,57,-1,-1,-1,-1,59,61,63,65,67,69,71,73,75,77,-1,-1,79,81,-1,-1,-1,-1,-1,-1,-1,-1,-1,-1,-1,-1,-1,-1,-1,-1,-1,-1,-1,-1,-1,-1,-1,-1,-1,-1,-1,-1,-1,-1,-1,-1],"loss_changes":[1.557407E1,9.587292E0,9.384426E0,1.1328428E1,1.0122796E1,4.1024055E0,8.071087E0,1.1947741E1,8.7767105E0,1.5955364E1,1.2743781E1,0E0,2.177E0,1.0665632E1,8.991783E0,1.1213486E1,1.4505484E1,3.0667315E0,1.5115757E0,1.1020285E1,1.6340824E1,1.5859631E1,9.246635E0,0E0,0E0,1.1551759E1,1.3832416E1,8.014938E0,0E0,9.183916E0,9.357521E0,4.4841957E-1,1.2182472E1,0E0,0E0,0E0,0E0,1.0078245E1,4.476881E0,1.2560732E0,2.1050285E1,1.3466982E1,2.0519148E1,1.0471954E1,1.3016167E1,6.923399E0,8.960076E0,0E0,0E0,1.49155655E1,6.311268E0,0E0,0E0,0E0,0E0,0E0,0E0,0E0,0E0,0E0,0E0,0E0,0E0,0E0,0E0,0E0,0E0,0E0,0E0,0E0,0E0,0E0,0E0,0E0,0E0,0E0,0E0,0E0,0E0,0E0,0E0,0E0,0E0],"parents":[2147483647,0,0,1,1,2,2,3,3,4,4,5,5,6,6,7,7,8,8,9,9,10,10,12,12,13,13,14,14,15,15,16,16,17,17,18,18,19,19,20,20,21,21,22,22,25,25,26,26,27,27,29,29,30,30,31,31,32,32,37,37,38,38,39,39,40,40,41,41,42,42,43,43,44,44,45,45,46,46,49,49,50,50],"right_children":[2,4,6,8,10,12,14,16,18,20,22,-1,24,26,28,30,32,34,36,38,40,42,44,-1,-1,46,48,50,-1,52,54,56,58,-1,-1,-1,-1,60,62,64,66,68,70,72,74,76,78,-1,-1,80,82,-1,-1,-1,-1,-1,-1,-1,-1,-1,-1,-1,-1,-1,-1,-1,-1,-1,-1,-1,-1,-1,-1,-1,-1,-1,-1,-1,-1,-1,-1,-1,-1],"split_conditions":[6.8E-2,-8E-3,-2.06E-1,2.42E-1,-5.6E-2,-3.26E-1,-1.02E-1,7.9E-2,3.8E-2,1.4E-2,-1.29E-1,1.475223E-1,-8.2E-2,1.48E-1,2.7E-1,-2.3E-1,5.4E-2,6.2E-2,-2.6E-2,-2.5E-2,-1.32E-1,6.2E-2,9.4E-2,4.226879E-2,-3.5780522E-1,-2.48E-1,9E-3,-3.5E-2,4.907355E-1,-7E-3,-4.7E-2,1.3E-1,2.56E-1,8.931499E-1,1.7153735E-1,1.4840683E-1,-1.9931605E-1,-1.4E-2,-7.9E-2,1.3E-1,-2.6E-1,-4.8E-2,-2E-3,5.9E-2,-2.01E-1,-2E-2,-2.46E-1,-1.7647812E-1,8.737417E-1,4E-3,3.66E-1,6.694708E-1,-1.734891E-1,-2.5847438E-1,-8.748771E-2,-2.2798143E-1,-2.0173988E-3,7.846278E-1,-9.11652E-2,-1.3276163E-1,4.5411038E-1,1.5841827E-1,-2.577852E-1,-2.2411506E-1,9.820235E-2,-2.1927927E-1,1.0007405E0,4.5101544E-1,-2.0858673E-2,8.313104E-1,-2.0218752E-1,-6.626017E-2,1.4687106E-1,3.9859453E-1,-1.9616377E-2,-3.3976637E-2,8.503459E-1,4.4988197E-1,-1.10055394E-1,-9.986305E-2,2.6566496E-1,-1.5194207E-1,2.535401E-1],"split_indices":[24,84,197,42,142,150,82,124,93,61,33,0,90,81,186,108,59,54,82,102,16,63,162,0,0,130,72,84,0,134,101,2,50,0,0,0,0,10,46,50,129,64,110,160,133,147,71,0,0,78,59,0,0,0,0,0,0,0,0,0,0,0,0,0,0,0,0,0,0,0,0,0,0,0,0,0,0,0,0,0,0,0,0],"split_type":[0,0,0,0,0,0,0,0,0,0,0,0,0,0,0,0,0,0,0,0,0,0,0,0,0,0,0,0,0,0,0,0,0,0,0,0,0,0,0,0,0,0,0,0,0,0,0,0,0,0,0,0,0,0,0,0,0,0,0,0,0,0,0,0,0,0,0,0,0,0,0,0,0,0,0,0,0,0,0,0,0,0,0],"sum_hessian":[9.391436E2,6.1143066E2,3.277129E2,1.9922517E2,4.122055E2,2.0615976E1,3.0709692E2,1.939523E2,5.2728777E0,2.9750154E1,3.8245535E2,1.172884E0,1.9443092E1,4.0770668E1,2.6632626E2,1.8467708E2,9.275216E0,2.5490992E0,2.7237785E0,2.133644E1,8.413715E0,4.639557E1,3.3605978E2,1.0944141E0,1.8348679E1,3.754885E1,3.2218156E0,2.6509625E2,1.2300216E0,3.3514974E0,1.8132559E2,4.029337E0,5.245879E0,1.009734E0,1.5393652E0,1.0016704E0,1.722108E0,9.672171E0,1.16642685E1,2.7010305E0,5.7126846E0,3.981075E1,6.5848174E0,3.076751E2,2.8384672E1,2.2494228E0,3.5299427E1,1.4128036E0,1.8090119E0,5.5099266E1,2.0999698E2,2.0007958E0,1.3507016E0,3.5636215E1,1.4568938E2,3.023321E0,1.0060158E0,3.4131782E0,1.8327011E0,3.6144507E0,6.057719E0,2.2603505E0,9.403918E0,1.5808402E0,1.1201903E0,1.2503037E0,4.462381E0,5.451031E0,3.435972E1,4.5571656E0,2.0276518E0,2.862455E2,2.142961E1,9.226542E0,1.9158129E1,1.1731925E0,1.0762303E0,1.7969428E0,3.3502483E1,4.3082832E1,1.2016433E1,2.073511E2,2.6458678E0],"tree_param":{"num_deleted":"0","num_feature":"200","num_nodes":"83","size_leaf_vector":"1"}},{"base_weights":[-1.4831887E-1,-2.6743436E-1,-4.5427214E-2,-5.1841583E-2,-3.968561E-1,1.6586719E-3,-4.58856E-1,1.1189494E0,-9.946804E-2,-7.2443795E-1,-1.5723969E-1,-4.690813E-2,6.183489E-1,-6.6611093E-1,4.67457E-1,-1.9465397E-1,1.8976582E0,-2.7715138E-1,-3.492328E-2,5.0588377E-2,-8.331172E-1,-1.9443297E-1,6.1037445E-1,-7.727403E-2,7.18851E-1,1.4689066E0,1.4282818E-1,-8.057839E-1,1.7807627E-1,-2.2569612E-1,1.1056844E0,-9.363399E-2,2.8984382E0,8.456268E-2,-5.397023E-1,-3.8174856E-1,1.4239324E0,-9.167809E-1,-1.7697051E-1,1.6550233E0,-2.3050351E-1,5.257103E-1,-1.1944419E-1,-4.25427E-1,1.8551366E0,2.1091008E0,-3.0570093E-1,-2.4889833E-1,1.1025147E0,1.3786149E-1,-8.577521E-1,-2.4514046E-1,5.0509524E-1,2.3702972E0,-2.146786E-2,7.000496E-2,1.3266301E0,2.6298335E-1,-7.874516E-3,-2.0032898E-1,3.6146656E-1,-1.767458E-1,1.9593908E-1,7.85258E-1,-1.1112747E-1,-2.8689513E-1,1.3955592E-1,2.8128707E-1,-2.0134367E-1,1.4861958E-1,5.963237E-1,2.0121755E-1,-8.705154E-2,5.8146276E-2,5.984828E-1,-4.0991206E-2,4.5401582E-1,2.8127763E-1,-2.2237228E-1,1.8069056E-1,1.1844963E0,1.0583054E0,1.7129432E-1,-2.2648259E-1,1.4835234E-1,-1.448419E-1,2.675723E-1,-1.95553E-1,5.398729E-1,1.27099E-1,-2.7333304E-1,1.134376E-1,9.406361E-1,-2.5138474E-1,2.997886E-1],"categories":[],"categories_nodes":[],"categories_segments":[],"categories_sizes":[],"default_left":[0,0,0,0,0,0,0,0,0,0,0,0,0,0,0,0,0,0,0,0,0,0,0,0,0,0,0,0,0,0,0,0,0,0,0,0,0,0,0,0,0,0,0,0,0,0,0,0,0,0,0,0,0,0,0,0,0,0,0,0,0,0,0,0,0,0,0,0,0,0,0,0,0,0,0,0,0,0,0,0,0,0,0,0,0,0,0,0,0,0,0,0,0,0,0],"id":5,"left_children":[1,3,5,7,9,11,13,15,17,19,21,23,25,27,29,-1,31,-1,33,35,37,39,-1,41,43,45,47,49,51,-1,53,-1,55,57,59,61,63,65,67,69,71,73,75,77,79,81,83,85,87,-1,89,-1,-1,91,93,-1,-1,-1,-1,-1,-1,-1,-1,-1,-1,-1,-1,-1,-1,-1,-1,-1,-1,-1,-1,-1,-1,-1,-1,-1,-1,-1,-1,-1,-1,-1,-1,-1,-1,-1,-1,-1,-1,-1,-1],"loss_changes":[1.10857315E1,1.1683435E1,9.481887E0,8.949299E0,2.044865E1,1.3154655E1,9.872524E0,9.872423E0,8.120474E0,9.340298E0,1.283347E1,9.523646E0,1.2758817E1,4.9906483E0,8.377893E0,0E0,1.1105028E1,0E0,8.678713E0,9.164068E0,5.155609E0,1.0450808E1,0E0,1.0044541E1,2.110878E1,1.3585136E1,8.422404E0,2.7254944E0,1.1347381E1,0E0,9.698694E0,0E0,1.2254213E1,1.0257037E1,6.9556065E0,2.9241993E0,8.867601E0,5.126114E0,7.345951E0,1.7653656E-1,8.203297E0,1.2215445E1,1.0529593E1,4.3969073E0,1.8674078E1,1.6526123E1,1.7728425E0,4.7554245E0,9.08112E0,0E0,2.7383423E0,0E0,0E0,3.6902523E0,4.6459374E0,0E0,0E0,0E0,0E0,0E0,0E0,0E0,0E0,0E0,0E0,0E0,0E0,0E0,0E0,0E0,0E0,0E0,0E0,0E0,0E0,0E0,0E0,0E0,0E0,0E0,0E0,0E0,0E0,0E0,0E0,0E0,0E0,0E0,0E0,0E0,0E0,0E0,0E0,0E0,0E0],"parents":[2147483647,0,0,1,1,2,2,3,3,4,4,5,5,6,6,7,7,8,8,9,9,10,10,11,11,12,12,13,13,14,14,16,16,18,18,19,19,20,20,21,21,23,23,24,24,25,25,26,26,27,27,28,28,30,30,32,32,33,33,34,34,35,35,36,36,37,37,38,38,39,39,40,40,41,41,42,42,43,43,44,44,45,45,46,46,47,47,48,48,50,50,53,53,54,54],"right_children":[2,4,6,8,10,12,14,16,18,20,22,24,26,28,30,-1,32,-1,34,36,38,40,-1,42,44,46,48,50,52,-1,54,-1,56,58,60,62,64,66,68,70,72,74,76,78,80,82,84,86,88,-1,90,-1,-1,92,94,-1,-1,-1,-1,-1,-1,-1,-1,-1,-1,-1,-1,-1,-1,-1,-1,-1,-1,-1,-1,-1,-1,-1,-1,-1,-1,-1,-1,-1,-1,-1,-1,-1,-1,-1,-1,-1,-1,-1,-1],"split_conditions":[-8E-3,-1.8E-2,3E-3,-2.35E-1,2E-3,9.8E-2,3.8E-2,-2E-3,-2.06E-1,-3.2E-2,1.37E-1,6.5E-2,-4.1E-2,4.4E-2,-1.79E-1,-1.9465397E-1,-4.6E-2,-2.7715138E-1,1.58E-1,7.7E-2,1.43E-1,-1.37E-1,6.1037445E-1,-1.92E-1,7.6E-2,2.1E-2,8.6E-2,-2.7E-1,-1.5E-2,-2.2569612E-1,0E0,-9.363399E-2,1E-2,-3.4E-2,1.42E-1,6E-2,2.4E-2,1.47E-1,-2.9E-2,-3.5E-2,-1.38E-1,2.2E-2,2.7E-1,-7E-2,1.13E-1,-2E-3,3.4E-2,1.28E-1,-8.1E-2,1.3786149E-1,-2.63E-1,-2.4514046E-1,5.0509524E-1,-1.51E-1,2.4E-2,7.000496E-2,1.3266301E0,2.6298335E-1,-7.874516E-3,-2.0032898E-1,3.6146656E-1,-1.767458E-1,1.9593908E-1,7.85258E-1,-1.1112747E-1,-2.8689513E-1,1.3955592E-1,2.8128707E-1,-2.0134367E-1,1.4861958E-1,5.963237E-1,2.0121755E-1,-8.705154E-2,5.8146276E-2,5.984828E-1,-4.0991206E-2,4.5401582E-1,2.8127763E-1,-2.2237228E-1,1.8069056E-1,1.1844963E0,1.0583054E0,1.7129432E-1,-2.2648259E-1,1.4835234E-1,-1.448419E-1,2.675723E-1,-1.95553E-1,5.398729E-1,1.27099E-1,-2.7333304E-1,1.134376E-1,9.406361E-1,-2.5138474E-1,2.997886E-1],"split_indices":[147,81,30,131,81,110,124,105,16,141,72,65,87,183,31,0,36,0,16,89,63,160,0,48,48,15,158,52,88,0,123,0,95,122,166,84,5,195,103,63,65,90,186,100,12,112,100,109,40,0,2,0,0,29,22,0,0,0,0,0,0,0,0,0,0,0,0,0,0,0,0,0,0,0,0,0,0,0,0,0,0,0,0,0,0,0,0,0,0,0,0,0,0,0,0],"split_type":[0,0,0,0,0,0,0,0,0,0,0,0,0,0,0,0,0,0,0,0,0,0,0,0,0,0,0,0,0,0,0,0,0,0,0,0,0,0,0,0,0,0,0,0,0,0,0,0,0,0,0,0,0,0,0,0,0,0,0,0,0,0,0,0,0,0,0,0,0,0,0,0,0,0,0,0,0,0,0,0,0,0,0,0,0,0,0,0,0,0,0,0,0,0,0],"sum_hessian":[9.0450684E2,4.1846252E2,4.860443E2,1.5749893E2,2.609636E2,4.3724228E2,4.8802048E1,5.277167E0,1.5222176E2,1.0939092E2,1.5157268E2,4.0617807E2,3.10642E1,4.0108906E1,8.69314E0,1.6647284E0,3.6124387E0,1.008626E1,1.421355E2,1.3518774E1,9.587215E1,1.4993962E2,1.6330522E0,3.9155035E2,1.4627702E1,1.0390247E1,2.0673952E1,3.445391E1,5.654997E0,2.9247005E0,5.76844E0,1.3405558E0,2.2718828E0,1.1560352E2,2.6531973E1,1.0831107E1,2.6876674E0,8.467786E1,1.1194287E1,2.0097575E0,1.4792987E2,2.4843971E1,3.667064E2,7.5999227E0,7.0277796E0,7.4971457E0,2.8931022E0,1.520727E1,5.466683E0,1.0498343E0,3.3404076E1,3.679827E0,1.9751699E0,2.1986964E0,3.5697434E0,1.2458591E0,1.0260237E0,1.3340225E1,1.022633E2,2.5292616E1,1.2393559E0,9.381606E0,1.4495002E0,1.3385314E0,1.3491361E0,8.2622154E1,2.055706E0,3.1629705E0,8.031317E0,1.0029919E0,1.0067656E0,8.549997E0,1.3937987E2,2.1189362E1,3.6546102E0,3.637921E2,2.9142916E0,1.0592972E0,6.5406256E0,5.2019796E0,1.8257996E0,3.2272234E0,4.2699223E0,1.8891135E0,1.0039887E0,1.3098393E1,2.1088762E0,1.5728979E0,3.893785E0,1.0579106E0,3.2346165E1,1.0247703E0,1.1739262E0,2.0828347E0,1.4869087E0],"tree_param":{"num_deleted":"0","num_feature":"200","num_nodes":"95","size_leaf_vector":"1"}},{"base_weights":[-1.1346086E-1,-1.4086108E-1,3.0128044E-1,6.66018E-1,-1.4676648E-1,1.2526859E0,-7.011988E-2,-1.9388174E-1,1.0091494E-1,1.9640844E0,3.1219077E-1,1.2538842E0,-2.0754926E-1,2.8359503E-1,-2.2882238E-1,7.22614E-3,8.683245E-1,2.710041E0,3.5353877E-2,6.4930856E-1,-1.8611033E-1,6.4860547E-1,-1.6795594E-1,-3.7436333E-1,9.1840905E-1,1.9888785E0,-6.542531E-2,4.3964428E-1,-2.4583307E-1,5.8309436E-1,-3.7313014E-2,-3.7696323E-1,1.5207001E0,3.2530785E0,5.6856636E-2,-2.2680247E-1,2.5005782E-1,1.0527626E0,-7.8807764E-2,-5.209217E-1,1.1771523E0,-1.282614E-2,6.57247E-1,-1.5381168E-1,7.272802E-1,3.8416716E-1,-9.207228E-2,6.453644E-1,-4.2827604E-3,-1.9069475E-1,-6.1853E-2,4.82494E-2,-1.0986362E-1,2.951009E-1,-2.6177654E-1,6.4671415E-1,-1.3501735E-1,1.8783213E-1,1.1434463E0,4.1519913E-1,1.55399265E-2,1.2167382E-1,-2.075155E-1,-1.5804613E-1,6.913828E-1,2.4764474E-1,-1.9599833E-1],"categories":[],"categories_nodes":[],"categories_segments":[],"categories_sizes":[],"default_left":[0,0,0,0,0,0,0,0,0,0,0,0,0,0,0,0,0,0,0,0,0,0,0,0,0,0,0,0,0,0,0,0,0,0,0,0,0,0,0,0,0,0,0,0,0,0,0,0,0,0,0,0,0,0,0,0,0,0,0,0,0,0,0,0,0,0,0],"id":6,"left_children":[1,3,5,-1,7,9,11,13,15,17,19,21,23,25,27,29,31,33,35,37,-1,-1,-1,39,41,43,45,47,49,-1,51,53,55,57,-1,-1,-1,59,-1,61,63,65,-1,-1,-1,-1,-1,-1,-1,-1,-1,-1,-1,-1,-1,-1,-1,-1,-1,-1,-1,-1,-1,-1,-1,-1,-1],"loss_changes":[1.0085708E1,1.189353E1,1.9553238E1,0E0,9.688496E0,9.770649E0,7.641868E0,1.1684492E1,9.561896E0,1.2345253E1,2.8778496E0,7.727923E0,7.4081354E0,2.8661766E1,7.4940567E0,1.0388428E1,1.2329381E1,7.90012E0,2.7934427E0,2.5839689E0,0E0,0E0,0E0,8.223476E0,6.121837E0,1.0148327E1,1.364179E1,1.2832363E1,9.670738E0,0E0,7.742467E0,4.7535696E0,1.3102831E1,5.0325317E0,0E0,0E0,0E0,1.4360008E0,0E0,5.229273E0,7.3529224E0,2.667555E0,0E0,0E0,0E0,0E0,0E0,0E0,0E0,0E0,0E0,0E0,0E0,0E0,0E0,0E0,0E0,0E0,0E0,0E0,0E0,0E0,0E0,0E0,0E0,0E0,0E0],"parents":[2147483647,0,0,1,1,2,2,4,4,5,5,6,6,7,7,8,8,9,9,10,10,11,11,12,12,13,13,14,14,15,15,16,16,17,17,18,18,19,19,23,23,24,24,25,25,26,26,27,27,28,28,30,30,31,31,32,32,33,33,37,37,39,39,40,40,41,41],"right_children":[2,4,6,-1,8,10,12,14,16,18,20,22,24,26,28,30,32,34,36,38,-1,-1,-1,40,42,44,46,48,50,-1,52,54,56,58,-1,-1,-1,60,-1,62,64,66,-1,-1,-1,-1,-1,-1,-1,-1,-1,-1,-1,-1,-1,-1,-1,-1,-1,-1,-1,-1,-1,-1,-1,-1,-1],"split_conditions":[7.6E-2,-1.93E-1,4E-2,6.66018E-1,8.1E-2,2.4E-2,5.2E-1,-6.9E-2,6.5E-2,1.37E-1,6E-2,3E-2,1E-1,-1.03E-1,-1.78E-1,-1.37E-1,-2.6E-2,3.8E-2,1.02E-1,3.4E-2,-1.8611033E-1,6.4860547E-1,-1.6795594E-1,1.14E-1,1.25E-1,-8.2E-2,-1.31E-1,-2.51E-1,-3.9E-2,5.8309436E-1,1.8E-2,-3E-2,9.5E-2,-1.41E-1,5.6856636E-2,-2.2680247E-1,2.5005782E-1,1.13E-1,-7.8807764E-2,-2.02E-1,-4.7E-2,1.3E-2,6.57247E-1,-1.5381168E-1,7.272802E-1,3.8416716E-1,-9.207228E-2,6.453644E-1,-4.2827604E-3,-1.9069475E-1,-6.1853E-2,4.82494E-2,-1.0986362E-1,2.951009E-1,-2.6177654E-1,6.4671415E-1,-1.3501735E-1,1.8783213E-1,1.1434463E0,4.1519913E-1,1.55399265E-2,1.2167382E-1,-2.075155E-1,-1.5804613E-1,6.913828E-1,2.4764474E-1,-1.9599833E-1],"split_indices":[162,165,197,0,101,22,0,127,168,71,119,165,81,63,82,189,54,97,134,16,0,0,0,35,22,88,121,5,171,0,157,82,54,40,0,0,0,150,0,52,63,61,0,0,0,0,0,0,0,0,0,0,0,0,0,0,0,0,0,0,0,0,0,0,0,0,0],"split_type":[0,0,0,0,0,0,0,0,0,0,0,0,0,0,0,0,0,0,0,0,0,0,0,0,0,0,0,0,0,0,0,0,0,0,0,0,0,0,0,0,0,0,0,0,0,0,0,0,0,0,0,0,0,0,0,0,0,0,0,0,0,0,0,0,0,0,0],"sum_hessian":[8.8277905E2,8.286912E2,5.40878E1,1.132147E0,8.275591E2,1.451985E1,3.956795E1,6.954787E2,1.3208037E2,7.647138E0,6.8727117E0,2.9569218E0,3.6611027E1,4.6937958E1,6.485408E2,1.1860942E2,1.3470953E1,5.2222767E0,2.4248612E0,5.2709937E0,1.6017177E0,1.8424083E0,1.1145134E0,3.2468273E1,4.142755E0,7.176369E0,3.976159E1,1.5477521E1,6.3306323E2,1.7080874E0,1.1690133E2,4.776154E0,8.694799E0,4.0574703E0,1.1648066E0,1.244151E0,1.1807102E0,3.5473583E0,1.7236356E0,3.0272902E1,2.1953719E0,2.9636693E0,1.1790854E0,1.0375292E0,6.13884E0,5.3939114E0,3.4367676E1,2.4605346E0,1.3016986E1,5.706774E1,5.759955E2,7.327063E1,4.36307E1,1.012326E0,3.7638283E0,6.50494E0,2.1898592E0,1.0831498E0,2.9743204E0,2.3778305E0,1.1695278E0,4.4980726E0,2.5774828E1,1.0863148E0,1.1090572E0,1.1585355E0,1.8051339E0],"tree_param":{"num_deleted":"0","num_feature":"200","num_nodes":"67","size_leaf_vector":"1"}},{"base_weights":[-8.6468205E-2,-6.20933E-2,-4.9958014E-1,-6.9118455E-2,1.2711239E0,-6.0491395E-1,1.182736E0,-5.2226603E-2,-7.634276E-1,6.915395E-1,-1.7651956E-1,-2.7348042E-1,-1.0226008E0,-3.0405205E-2,5.7977754E-1,-5.1293087E-1,-3.3604156E-2,-8.5536355E-1,1.2804821E-1,-6.1496663E-1,5.673657E-1,-1.2469572E-2,-3.2239428E-1,5.1087254E-1,-6.620302E-1,6.3393E-1,-5.0858404E-2,-9.6022314E-1,-4.015047E-2,-8.297651E-1,6.7741936E-1,-1.375617E-1,7.214855E-1,-2.3533767E-1,3.0533653E-1,8.021802E-2,9.5576453E-1,-1.8368085E-1,-1.04733035E-2,-3.0660337E-1,-8.976566E-3,1.4915116E-1,-1.5918513E-1,-2.951876E-1,8.61095E-2,-1.7972006E-1,5.109621E-1,-1.8837652E-1,2.7576828E-1],"categories":[],"categories_nodes":[],"categories_segments":[],"categories_sizes":[],"default_left":[0,0,0,0,0,0,0,0,0,0,0,0,0,0,0,0,0,0,0,0,0,0,0,0,0,0,0,0,0,0,0,0,0,0,0,0,0,0,0,0,0,0,0,0,0,0,0,0,0],"id":7,"left_children":[1,3,5,7,9,11,13,15,17,-1,-1,19,21,-1,-1,23,25,27,-1,29,31,-1,-1,-1,33,35,37,39,41,43,45,47,-1,-1,-1,-1,-1,-1,-1,-1,-1,-1,-1,-1,-1,-1,-1,-1,-1],"loss_changes":[8.631883E0,7.707287E0,9.184184E0,9.462281E0,9.654543E0,6.0380173E0,3.2331352E0,6.7779336E0,2.4627838E0,0E0,0E0,8.047201E0,9.676342E-1,0E0,0E0,1.1270458E1,8.812585E0,1.5110893E0,0E0,5.9883475E0,1.1035263E1,0E0,0E0,0E0,6.8623867E0,1.7184418E1,6.640101E0,8.9018345E-1,1.0833254E0,3.246132E0,5.3888764E0,4.162364E0,0E0,0E0,0E0,0E0,0E0,0E0,0E0,0E0,0E0,0E0,0E0,0E0,0E0,0E0,0E0,0E0,0E0],"parents":[2147483647,0,0,1,1,2,2,3,3,4,4,5,5,6,6,7,7,8,8,11,11,12,12,15,15,16,16,17,17,19,19,20,20,24,24,25,25,26,26,27,27,28,28,29,29,30,30,31,31],"right_children":[2,4,6,8,10,12,14,16,18,-1,-1,20,22,-1,-1,24,26,28,-1,30,32,-1,-1,-1,34,36,38,40,42,44,46,48,-1,-1,-1,-1,-1,-1,-1,-1,-1,-1,-1,-1,-1,-1,-1,-1,-1],"split_conditions":[1.16E-1,1.28E-1,2.06E-1,2.43E-1,1.5E-2,1.4E-2,6E-3,-6.6E-2,8.4E-2,6.915395E-1,-1.7651956E-1,2.2E-2,-6.4E-2,-3.0405205E-2,5.7977754E-1,-9.8E-2,-3.4E-2,2.4E-2,1.2804821E-1,-2E-3,4.9E-2,-1.2469572E-2,-3.2239428E-1,5.1087254E-1,1.23E-1,2.1E-2,-1.16E-1,2.29E-1,-4E-3,7.9E-2,5.4E-2,5E-2,7.214855E-1,-2.3533767E-1,3.0533653E-1,8.021802E-2,9.5576453E-1,-1.8368085E-1,-1.04733035E-2,-3.0660337E-1,-8.976566E-3,1.4915116E-1,-1.5918513E-1,-2.951876E-1,8.61095E-2,-1.7972006E-1,5.109621E-1,-1.8837652E-1,2.7576828E-1],"split_indices":[122,143,39,53,100,102,84,154,151,0,0,81,95,0,0,95,159,147,0,102,99,0,0,0,95,112,90,29,42,112,54,97,0,0,0,0,0,0,0,0,0,0,0,0,0,0,0,0,0],"split_type":[0,0,0,0,0,0,0,0,0,0,0,0,0,0,0,0,0,0,0,0,0,0,0,0,0,0,0,0,0,0,0,0,0,0,0,0,0,0,0,0,0,0,0,0,0,0,0,0,0],"sum_hessian":[8.5930566E2,8.125151E2,4.6790638E1,8.091993E2,3.3157778E0,4.4636284E1,2.1543567E0,7.9102954E2,1.8169739E1,1.9768772E0,1.3389006E0,2.5810474E1,1.8825808E1,1.1130904E0,1.0412663E0,2.9701239E1,7.613283E2,1.7128115E1,1.0416238E0,1.854683E1,7.2636447E0,1.039062E0,1.7786745E1,1.2155187E0,2.8485722E1,1.8282246E1,7.43046E2,1.5018437E1,2.1096778E0,1.6210546E1,2.3362827E0,5.9183936E0,1.3452508E0,2.7047457E1,1.4382646E0,1.6952185E1,1.3300611E0,1.9491055E1,7.23555E2,1.3990637E1,1.0278007E0,1.0002286E0,1.1094493E0,1.4348437E1,1.8621097E0,1.2262881E0,1.1099946E0,4.319792E0,1.5986019E0],"tree_param":{"num_deleted":"0","num_feature":"200","num_nodes":"49","size_leaf_vector":"1"}},{"base_weights":[-6.428653E-2,-1.1698805E-1,1.0645465E-1,3.2027777E-2,-2.452125E-1,6.526667E-1,-5.454688E-3,9.050267E-3,1.6951069E0,1.0416091E-2,-3.7256965E-1,4.3423143E-1,8.804629E-1,8.4606385E-1,-1.18468836E-1,-1.4725786E-1,2.3107435E-1,9.5026106E-1,-7.7586636E-2,1.4629164E0,-5.60592E-2,-4.904108E-1,-8.986897E-3,1.5865605E0,1.7907828E-1,1.1854849E0,4.6377024E-1,-1.7028247E-1,1.4048659E0,-1.9504951E-1,1.0924891E0,4.7131273E-1,-2.5317502E-1,3.3273075E-2,8.533282E-1,-7.4211186E-1,7.90565E-2,-2.638939E-1,-6.841758E-1,-3.058962E-1,8.075451E-1,2.5664737E0,-9.230869E-2,-7.6949716E-2,1.6246138E0,1.4284464E0,-1.3421158E-1,-2.1781817E-1,1.2892959E0,2.410727E0,-1.7902738E-1,-8.391969E-2,1.4614978E-1,6.924718E-1,-7.852338E-2,8.402847E-2,3.776656E-1,-1.429442E-1,1.6001503E-1,2.960931E-1,-2.2032432E-1,2.1655987E-1,-2.6877564E-1,3.432226E-1,-1.4049714E-2,-1.97429E-3,-1.8867435E-1,2.612094E-1,-2.1463008E-1,4.1155562E-1,-1.2289843E-1,5.9106153E-1,4.3369856E-2,1.0419098E0,-1.8389159E-3,-8.359184E-2,5.939022E-1,-4.3432437E-2,7.505914E-1,5.0155576E-2,8.3199185E-1,4.089348E-1,-1.3751762E-1,-9.1046706E-2,1.14590816E-1,5.982873E-1,-7.033327E-2,1.0772898E0,-1.7609471E-2],"categories":[],"categories_nodes":[],"categories_segments":[],"categories_sizes":[],"default_left":[0,0,0,0,0,0,0,0,0,0,0,0,0,0,0,0,0,0,0,0,0,0,0,0,0,0,0,0,0,0,0,0,0,0,0,0,0,0,0,0,0,0,0,0,0,0,0,0,0,0,0,0,0,0,0,0,0,0,0,0,0,0,0,0,0,0,0,0,0,0,0,0,0,0,0,0,0,0,0,0,0,0,0,0,0,0,0,0,0],"id":8,"left_children":[1,3,5,7,9,11,13,15,17,19,21,23,-1,25,27,29,31,-1,-1,33,35,37,39,41,43,-1,45,47,49,51,53,55,57,59,-1,61,63,65,67,69,71,73,-1,75,77,79,81,83,85,87,-1,-1,-1,-1,-1,-1,-1,-1,-1,-1,-1,-1,-1,-1,-1,-1,-1,-1,-1,-1,-1,-1,-1,-1,-1,-1,-1,-1,-1,-1,-1,-1,-1,-1,-1,-1,-1,-1,-1],"loss_changes":[7.596129E0,1.2322301E1,1.218631E1,1.140894E1,1.1285343E1,1.5624644E1,1.6114086E1,1.0302682E1,1.2524161E1,1.1302213E1,9.906433E0,9.157267E0,0E0,2.1461567E1,1.1903854E1,1.053758E1,1.4386311E1,0E0,0E0,1.0022458E1,1.04483185E1,7.4862785E0,1.42210245E1,1.1358966E1,1.0272094E1,0E0,1.09230175E1,1.0259084E1,1.1443841E1,9.878625E0,1.1502689E1,1.2044638E1,7.511115E0,3.308732E0,0E0,4.821027E0,1.2729478E1,7.712791E0,5.168064E0,8.047079E0,1.1774602E1,9.023098E0,0E0,1.0609148E1,6.8366117E0,1.1757078E1,6.643033E0,7.316683E0,5.4955964E0,1.0428513E1,0E0,0E0,0E0,0E0,0E0,0E0,0E0,0E0,0E0,0E0,0E0,0E0,0E0,0E0,0E0,0E0,0E0,0E0,0E0,0E0,0E0,0E0,0E0,0E0,0E0,0E0,0E0,0E0,0E0,0E0,0E0,0E0,0E0,0E0,0E0,0E0,0E0,0E0,0E0],"parents":[2147483647,0,0,1,1,2,2,3,3,4,4,5,5,6,6,7,7,8,8,9,9,10,10,11,11,13,13,14,14,15,15,16,16,19,19,20,20,21,21,22,22,23,23,24,24,26,26,27,27,28,28,29,29,30,30,31,31,32,32,33,33,35,35,36,36,37,37,38,38,39,39,40,40,41,41,43,43,44,44,45,45,46,46,47,47,48,48,49,49],"right_children":[2,4,6,8,10,12,14,16,18,20,22,24,-1,26,28,30,32,-1,-1,34,36,38,40,42,44,-1,46,48,50,52,54,56,58,60,-1,62,64,66,68,70,72,74,-1,76,78,80,82,84,86,88,-1,-1,-1,-1,-1,-1,-1,-1,-1,-1,-1,-1,-1,-1,-1,-1,-1,-1,-1,-1,-1,-1,-1,-1,-1,-1,-1,-1,-1,-1,-1,-1,-1,-1,-1,-1,-1,-1,-1],"split_conditions":[5.1E-2,-1.8E-2,-5.5E-2,2.52E-1,5.1E-2,6.5E-2,-3.2E-2,7E-3,-3.2E-2,-3.3E-2,9E-2,-6.4E-2,8.804629E-1,-4E-3,1.48E-1,4.03E-1,7.1E-2,9.5026106E-1,-7.7586636E-2,2E-2,-1.1E-2,-3.1E-2,4E-3,1.5E-2,7.5E-2,1.1854849E0,-1.23E-1,2.28E-1,1.3E-2,2.27E-1,4.08E-1,6.8E-2,1.5E-1,-4.2E-2,8.533282E-1,-2.4E-1,-4E-2,6.7E-2,-1.73E-1,-1.67E-1,-7E-3,8E-3,-9.230869E-2,1.01E-1,-1.07E-1,0E0,-8.6E-2,3.6E-2,1.26E-1,1.99E-1,-1.7902738E-1,-8.391969E-2,1.4614978E-1,6.924718E-1,-7.852338E-2,8.402847E-2,3.776656E-1,-1.429442E-1,1.6001503E-1,2.960931E-1,-2.2032432E-1,2.1655987E-1,-2.6877564E-1,3.432226E-1,-1.4049714E-2,-1.97429E-3,-1.8867435E-1,2.612094E-1,-2.1463008E-1,4.1155562E-1,-1.2289843E-1,5.9106153E-1,4.3369856E-2,1.0419098E0,-1.8389159E-3,-8.359184E-2,5.939022E-1,-4.3432437E-2,7.505914E-1,5.0155576E-2,8.3199185E-1,4.089348E-1,-1.3751762E-1,-9.1046706E-2,1.14590816E-1,5.982873E-1,-7.033327E-2,1.0772898E0,-1.7609471E-2],"split_indices":[81,81,95,97,3,80,157,88,10,125,35,105,0,188,151,12,35,0,0,87,82,63,36,44,34,0,44,186,95,10,12,46,5,90,0,20,93,12,126,102,141,147,0,131,2,53,90,141,162,151,0,0,0,0,0,0,0,0,0,0,0,0,0,0,0,0,0,0,0,0,0,0,0,0,0,0,0,0,0,0,0,0,0,0,0,0,0,0,0],"split_type":[0,0,0,0,0,0,0,0,0,0,0,0,0,0,0,0,0,0,0,0,0,0,0,0,0,0,0,0,0,0,0,0,0,0,0,0,0,0,0,0,0,0,0,0,0,0,0,0,0,0,0,0,0,0,0,0,0,0,0,0,0,0,0,0,0,0,0,0,0,0,0,0,0,0,0,0,0,0,0,0,0,0,0,0,0,0,0,0,0],"sum_hessian":[8.417881E2,6.4348334E2,1.983048E2,2.979599E2,3.455234E2,3.2898796E1,1.65406E2,2.9489108E2,3.068846E0,1.1520485E2,2.3031854E2,3.1111328E1,1.7874653E0,1.862059E1,1.4678542E2,1.732543E2,1.21636765E2,1.3956988E0,1.6731472E0,4.122407E0,1.1108244E2,1.7367859E2,5.6639965E1,4.6940174E0,2.641731E1,1.0175937E0,1.7602997E1,1.4281598E2,3.9694254E0,1.6763474E2,5.6195674E0,8.132016E1,4.03166E1,2.529187E0,1.5932199E0,1.7538408E1,9.354404E1,8.116097E1,9.251761E1,4.199501E1,1.4644953E1,2.8597667E0,1.8342509E0,2.3246706E1,3.170605E0,6.204689E0,1.1398308E1,1.3913538E2,3.6806087E0,2.5058122E0,1.4636132E0,1.4964893E2,1.7985819E1,2.5899785E0,3.029589E0,6.652415E1,1.4796017E1,3.1708664E1,8.607936E0,1.0005485E0,1.5286385E0,1.3162872E0,1.622212E1,9.03342E0,8.451062E1,4.8200886E1,3.2960087E1,1.2940029E0,9.122361E1,1.7342197E0,4.026079E1,4.602263E0,1.004269E1,1.8557965E0,1.0039701E0,2.1957851E1,1.2888551E0,1.3277951E0,1.8428097E0,3.7820506E0,2.4226382E0,1.4582273E0,9.94008E0,1.2217804E2,1.6957335E1,2.305227E0,1.3753817E0,1.3881758E0,1.1176363E0],"tree_param":{"num_deleted":"0","num_feature":"200","num_nodes":"89","size_leaf_vector":"1"}},{"base_weights":[-5.1748544E-2,6.4560604E-1,-6.42676E-2,2.1738443E0,7.528078E-2,-4.6795372E-2,-5.7966983E-1,1.0647291E0,1.6938888E-2,4.407135E-1,-2.3430908E-1,-4.290298E-3,-2.878867E-1,2.3208703E-1,-7.079521E-1,3.137526E-1,-5.381454E-1,2.361834E-2,-4.6884167E-1,2.546108E-1,-4.5584488E-1,1.6170768E-1,-3.0107087E-1,-8.253189E-1,2.622164E-1,-6.1359954E-1,4.3375976E-2,4.3536103E-1,-7.2898346E-1,9.077626E-1,-4.6086004E-1,4.7992972E-1,-5.225469E-1,-6.908389E-1,6.27897E-1,5.977701E-2,-2.9921672E-1,1.928423E-1,-2.5443247E-1,-7.328921E-2,2.6937116E-2,6.287415E-1,-1.523859E-1,2.6960096E-1,-2.5432318E-1,-2.5664631E-2,6.5155524E-1,2.679827E-1,-2.0586906E-1,4.216759E-1,-1.5617527E-1,1.5453635E-1,-1.784129E-1,-2.502664E-1,-1.4643462E-3],"categories":[],"categories_nodes":[],"categories_segments":[],"categories_sizes":[],"default_left":[0,0,0,0,0,0,0,0,0,0,0,0,0,0,0,0,0,0,0,0,0,0,0,0,0,0,0,0,0,0,0,0,0,0,0,0,0,0,0,0,0,0,0,0,0,0,0,0,0,0,0,0,0,0,0],"id":9,"left_children":[1,3,5,7,9,11,13,-1,-1,-1,15,17,19,-1,21,-1,23,25,27,29,31,33,-1,35,-1,37,39,41,43,45,47,49,51,53,-1,-1,-1,-1,-1,-1,-1,-1,-1,-1,-1,-1,-1,-1,-1,-1,-1,-1,-1,-1,-1],"loss_changes":[7.3641987E0,1.2808161E1,7.401231E0,1.1473078E1,5.467801E0,8.185936E0,5.2279234E0,0E0,0E0,0E0,4.6773276E0,8.829949E0,1.1025328E1,0E0,6.6272974E0,0E0,4.4562473E0,8.117025E0,9.3960905E0,1.3945355E1,5.979622E0,1.3367936E1,0E0,1.6386647E0,0E0,6.2586904E0,8.356617E0,1.5552192E1,6.62796E0,1.9609177E1,5.031254E0,6.870276E0,6.757618E0,5.639374E-1,0E0,0E0,0E0,0E0,0E0,0E0,0E0,0E0,0E0,0E0,0E0,0E0,0E0,0E0,0E0,0E0,0E0,0E0,0E0,0E0,0E0],"parents":[2147483647,0,0,1,1,2,2,3,3,4,4,5,5,6,6,10,10,11,11,12,12,14,14,16,16,17,17,18,18,19,19,20,20,21,21,23,23,25,25,26,26,27,27,28,28,29,29,30,30,31,31,32,32,33,33],"right_children":[2,4,6,8,10,12,14,-1,-1,-1,16,18,20,-1,22,-1,24,26,28,30,32,34,-1,36,-1,38,40,42,44,46,48,50,52,54,-1,-1,-1,-1,-1,-1,-1,-1,-1,-1,-1,-1,-1,-1,-1,-1,-1,-1,-1,-1,-1],"split_conditions":[-1.15E-1,-1.91E-1,2.03E-1,-9.5E-2,-4.9E-2,7.7E-2,-1.17E-1,1.0647291E0,1.6938888E-2,4.407135E-1,-2.6E-2,2.75E-1,-1.6E-2,2.3208703E-1,-6.7E-2,3.137526E-1,8.2E-2,-2.46E-1,-4.6E-2,-2E-2,-1.17E-1,2.5E-2,-3.0107087E-1,-3.2E-2,2.622164E-1,-5.3E-2,-2.1E-2,-5E-2,-5.1E-2,3.1E-2,-3.5E-2,-1.2E-2,-1.31E-1,2.8E-2,6.27897E-1,5.977701E-2,-2.9921672E-1,1.928423E-1,-2.5443247E-1,-7.328921E-2,2.6937116E-2,6.287415E-1,-1.523859E-1,2.6960096E-1,-2.5432318E-1,-2.5664631E-2,6.5155524E-1,2.679827E-1,-2.0586906E-1,4.216759E-1,-1.5617527E-1,1.5453635E-1,-1.784129E-1,-2.502664E-1,-1.4643462E-3],"split_indices":[134,2,99,75,124,52,102,0,0,0,141,20,14,0,87,0,143,36,93,85,158,132,0,199,0,72,141,88,174,44,141,112,121,82,0,0,0,0,0,0,0,0,0,0,0,0,0,0,0,0,0,0,0,0,0],"split_type":[0,0,0,0,0,0,0,0,0,0,0,0,0,0,0,0,0,0,0,0,0,0,0,0,0,0,0,0,0,0,0,0,0,0,0,0,0,0,0,0,0,0,0,0,0,0,0,0,0,0,0,0,0,0,0],"sum_hessian":[8.3777716E2,1.3882875E1,8.238943E2,3.008837E0,1.0874039E1,7.9793494E2,2.5959337E1,1.4141592E0,1.5946779E0,1.2957007E0,9.578338E0,6.792067E2,1.1872823E2,1.8121122E0,2.4147226E1,1.3688504E0,8.209487E0,6.4161017E2,3.759656E1,2.7946466E1,9.078177E1,6.240789E0,1.7906437E1,7.1675353E0,1.041952E0,1.839164E1,6.232185E2,8.249464E0,2.9347095E1,1.4468993E1,1.3477474E1,5.6281576E0,8.515361E1,4.7751384E0,1.4656503E0,1.0079278E0,6.1596074E0,2.6189938E0,1.5772646E1,8.5990685E1,5.3722784E2,2.5460675E0,5.7033963E0,1.5490978E0,2.7797998E1,8.624358E0,5.844635E0,1.5001621E0,1.1977312E1,2.713144E0,2.9150136E0,5.1376867E0,8.001592E1,3.7708046E0,1.004334E0],"tree_param":{"num_deleted":"0","num_feature":"200","num_nodes":"55","size_leaf_vector":"1"}},{"base_weights":[-4.1922163E-2,-5.510267E-2,5.10309E-1,-4.305182E-2,-6.320414E-1,7.183483E-1,2.4311616E-1,1.3021809E0,-4.8702486E-2,-8.0022955E-1,2.9080087E-1,6.9118184E-1,-4.4979683E-1,-1.8541515E-1,7.4598485E-1,-3.4509372E-2,-5.661759E-1,-9.1463786E-1,6.3625574E-2,1.4157461E0,-3.6959004E-1,-7.325242E-1,1.292249E-1,-3.1107315E-1,-5.2261073E-3,-7.226541E-1,3.4658718E-1,-2.9494837E-1,-5.199467E-3,-1.6936377E-1,1.9144733E0,7.994552E-2,-2.3270547E-1,-3.5313584E-2,-2.7780563E-1,2.2093835E-1,-1.2032425E-1,1.9360043E-3,-2.300514E-1,-2.672404E-1,9.801765E-2,8.3069783E-1,5.0771944E-2],"categories":[],"categories_nodes":[],"categories_segments":[],"categories_sizes":[],"default_left":[0,0,0,0,0,0,0,0,0,0,0,0,0,0,0,0,0,0,0,0,0,0,0,0,0,0,0,0,0,0,0,0,0,0,0,0,0,0,0,0,0,0,0],"id":10,"left_children":[1,3,5,7,9,-1,11,13,15,17,-1,19,21,-1,-1,23,25,27,-1,29,31,33,-1,35,37,39,-1,-1,-1,-1,41,-1,-1,-1,-1,-1,-1,-1,-1,-1,-1,-1,-1],"loss_changes":[6.0792046E0,5.624322E0,9.223466E0,6.1241207E0,5.235387E0,0E0,5.952512E0,9.204145E0,5.818919E0,1.9928894E0,0E0,9.307957E0,2.242857E0,0E0,0E0,6.2730794E0,6.5337996E0,8.525877E-1,0E0,7.992176E0,1.6097202E0,6.3217974E-1,0E0,7.2880225E0,6.2459717E0,3.8215847E0,0E0,0E0,0E0,0E0,8.207741E0,0E0,0E0,0E0,0E0,0E0,0E0,0E0,0E0,0E0,0E0,0E0,0E0],"parents":[2147483647,0,0,1,1,2,2,3,3,4,4,6,6,7,7,8,8,9,9,11,11,12,12,15,15,16,16,17,17,19,19,20,20,21,21,23,23,24,24,25,25,30,30],"right_children":[2,4,6,8,10,-1,12,14,16,18,-1,20,22,-1,-1,24,26,28,-1,30,32,34,-1,36,38,40,-1,-1,-1,-1,42,-1,-1,-1,-1,-1,-1,-1,-1,-1,-1,-1,-1],"split_conditions":[1.61E-1,2.43E-1,-7.1E-2,-2E-1,1.32E-1,7.183483E-1,6.4E-2,2.4E-2,1.45E-1,1.39E-1,2.9080087E-1,3.8E-2,3.1E-2,-1.8541515E-1,7.4598485E-1,-1.35E-1,1.8E-2,1.27E-1,6.3625574E-2,-3.1E-2,2.5E-2,6E-2,1.292249E-1,-1.56E-1,1.36E-1,6.9E-2,3.4658718E-1,-2.9494837E-1,-5.199467E-3,-1.6936377E-1,7.3E-2,7.994552E-2,-2.3270547E-1,-3.5313584E-2,-2.7780563E-1,2.2093835E-1,-1.2032425E-1,1.9360043E-3,-2.300514E-1,-2.672404E-1,9.801765E-2,8.3069783E-1,5.0771944E-2],"split_indices":[171,53,115,75,81,0,131,95,122,110,0,93,157,0,0,63,60,78,0,147,97,166,0,50,159,117,0,0,0,0,12,0,0,0,0,0,0,0,0,0,0,0,0],"split_type":[0,0,0,0,0,0,0,0,0,0,0,0,0,0,0,0,0,0,0,0,0,0,0,0,0,0,0,0,0,0,0,0,0,0,0,0,0,0,0,0,0,0,0],"sum_hessian":[8.3034314E2,8.118659E2,1.847718E1,7.963076E2,1.55583105E1,1.3059856E0,1.7171196E1,2.3711426E0,7.9393646E2,1.453231E1,1.0260009E0,1.0429534E1,6.7416615E0,1.0870248E0,1.2841179E0,7.7378015E2,2.0156332E1,1.3143379E1,1.38893E0,5.997964E0,4.43157E0,5.2303834E0,1.5112779E0,7.316408E1,7.006161E2,1.9008688E1,1.1476456E0,1.2121994E1,1.0213847E0,1.1801156E0,4.817848E0,1.8607785E0,2.5707915E0,1.6370724E0,3.5933113E0,5.220795E0,6.794328E1,6.910108E2,9.605248E0,1.651373E1,2.4949586E0,2.8404667E0,1.9773818E0],"tree_param":{"num_deleted":"0","num_feature":"200","num_nodes":"43","size_leaf_vector":"1"}},{"base_weights":[-3.2051876E-2,-4.3995477E-2,5.2107084E-1,-7.462439E-2,1.8685259E-1,5.6699775E-2,1.8108516E0,1.187178E0,-8.228158E-2,-3.2161504E-1,3.8138554E-1,9.834041E-1,-3.503877E-1,9.8706806E-1,4.0935242E-1,-8.9224726E-2,6.880538E-1,-1.05246395E-1,2.8576282E-1,-4.4347355E-1,3.510972E-1,6.237807E-1,-2.7907842E-1,-1.8413405E-1,1.9831644E0,2.963892E-1,-5.995096E-1,-1.852455E-1,4.4477093E-1,1.5839368E-1,-1.455843E-1,-1.0587801E-2,1.2498215E0,4.8257062E-1,-6.208069E-1,2.5958586E0,4.577467E-1,-8.1566936E-1,3.6167637E-1,7.4709946E-1,1.4597234E-1,2.8381664E-1,-2.678561E-1,2.4397174E-1,6.220856E-3,-4.9374845E-2,1.763933E-1,4.9152878E-1,-7.178115E-2,6.40694E-1,-1.5559539E-1,-2.0839903E-1,4.9501947E-1,2.6116386E-1,-2.2056542E-1,1.1016905E0,6.266288E-2,1.9342573E-1,-1.5756725E-1,1.16886705E-1,-2.9980835E-1,-1.2256465E-1,4.7843015E-1,2.971426E-1,-1.5818179E-1],"categories":[],"categories_nodes":[],"categories_segments":[],"categories_sizes":[],"default_left":[0,0,0,0,0,0,0,0,0,0,0,0,0,0,0,0,0,0,0,0,0,0,0,0,0,0,0,0,0,0,0,0,0,0,0,0,0,0,0,0,0,0,0,0,0,0,0,0,0,0,0,0,0,0,0,0,0,0,0,0,0,0,0,0,0],"id":11,"left_children":[1,3,5,7,9,11,13,15,17,19,21,23,25,-1,27,-1,-1,29,31,33,-1,35,37,-1,39,-1,41,-1,-1,43,45,47,49,51,53,55,57,59,61,-1,-1,63,-1,-1,-1,-1,-1,-1,-1,-1,-1,-1,-1,-1,-1,-1,-1,-1,-1,-1,-1,-1,-1,-1,-1],"loss_changes":[5.462553E0,5.7193813E0,1.0367836E1,6.9877005E0,9.500332E0,5.583153E0,8.181362E0,7.8534565E0,6.0289173E0,5.387251E0,1.12252245E1,8.404318E0,4.0548887E0,0E0,4.7747374E0,0E0,0E0,7.135479E0,1.1999525E1,4.4839444E0,0E0,1.54472065E1,6.9045167E0,0E0,1.0687685E0,0E0,2.683393E0,0E0,0E0,8.026539E0,8.187877E0,1.2867087E1,1.6573936E1,7.5480204E0,4.363579E0,8.8201065E0,9.175771E0,2.7737336E0,9.630737E0,0E0,0E0,2.2971687E0,0E0,0E0,0E0,0E0,0E0,0E0,0E0,0E0,0E0,0E0,0E0,0E0,0E0,0E0,0E0,0E0,0E0,0E0,0E0,0E0,0E0,0E0,0E0],"parents":[2147483647,0,0,1,1,2,2,3,3,4,4,5,5,6,6,7,7,8,8,9,9,10,10,11,11,12,12,14,14,17,17,18,18,19,19,21,21,22,22,24,24,26,26,29,29,30,30,31,31,32,32,33,33,34,34,35,35,36,36,37,37,38,38,41,41],"right_children":[2,4,6,8,10,12,14,16,18,20,22,24,26,-1,28,-1,-1,30,32,34,-1,36,38,-1,40,-1,42,-1,-1,44,46,48,50,52,54,56,58,60,62,-1,-1,64,-1,-1,-1,-1,-1,-1,-1,-1,-1,-1,-1,-1,-1,-1,-1,-1,-1,-1,-1,-1,-1,-1,-1],"split_conditions":[1.79E-1,1.03E-1,1.64E-1,-2.59E-1,-3.9E-2,3.8E-2,-2.1E-2,0E0,1.42E-1,1.54E-1,1.09E-1,3.7E-2,-5.7E-2,9.8706806E-1,1.48E-1,-8.9224726E-2,6.880538E-1,-2.5E-2,3.8E-2,0E0,3.510972E-1,-1.01E-1,1.7E-2,-1.8413405E-1,-3.5E-2,2.963892E-1,-8E-2,-1.852455E-1,4.4477093E-1,-1.48E-1,1.33E-1,0E0,1.9E-1,1.2E-2,-2.2E-2,1.31E-1,1.02E-1,-1.92E-1,0E0,7.4709946E-1,1.4597234E-1,-1E-3,-2.678561E-1,2.4397174E-1,6.220856E-3,-4.9374845E-2,1.763933E-1,4.9152878E-1,-7.178115E-2,6.40694E-1,-1.5559539E-1,-2.0839903E-1,4.9501947E-1,2.6116386E-1,-2.2056542E-1,1.1016905E0,6.266288E-2,1.9342573E-1,-1.5756725E-1,1.16886705E-1,-2.9980835E-1,-1.2256465E-1,4.7843015E-1,2.971426E-1,-1.5818179E-1],"split_indices":[124,93,10,127,85,84,39,103,89,28,28,82,194,0,2,0,0,192,97,136,0,112,36,0,42,0,88,0,0,52,147,165,89,82,108,100,147,12,103,0,0,59,0,0,0,0,0,0,0,0,0,0,0,0,0,0,0,0,0,0,0,0,0,0,0],"split_type":[0,0,0,0,0,0,0,0,0,0,0,0,0,0,0,0,0,0,0,0,0,0,0,0,0,0,0,0,0,0,0,0,0,0,0,0,0,0,0,0,0,0,0,0,0,0,0,0,0,0,0,0,0,0,0,0,0,0,0,0,0,0,0,0,0],"sum_hessian":[8.22403E2,8.059212E2,1.6481825E1,7.1211456E2,9.38066E1,1.288624E1,3.5955856E0,3.366219E0,7.0874835E2,2.5777208E1,6.802939E1,3.5009289E0,9.385311E0,1.0935855E0,2.502E0,1.7495981E0,1.6166209E0,6.677942E2,4.095421E1,2.4480448E1,1.2967592E0,4.9805824E1,1.8223566E1,1.4964008E0,2.004528E0,1.007415E0,8.377896E0,1.4956383E0,1.0063618E0,8.822799E1,5.7956616E2,3.208143E1,8.87278E0,3.6578255E0,2.0822622E1,2.7312117E0,4.7074615E1,9.769367E0,8.454199E0,1.0012269E0,1.0033011E0,2.096707E0,6.281189E0,1.4472708E1,7.375528E1,5.65691E2,1.3875175E1,3.1563733E0,2.8925055E1,5.773314E0,3.0994654E0,2.0229726E0,1.634853E0,1.0127301E0,1.9809893E1,1.5112305E0,1.2199811E0,3.9839424E1,7.2351894E0,1.1437297E0,8.625638E0,5.6153584E0,2.838841E0,1.0022947E0,1.0944124E0],"tree_param":{"num_deleted":"0","num_feature":"200","num_nodes":"65","size_leaf_vector":"1"}},{"base_weights":[-2.501234E-2,2.2122924E-1,-5.0589956E-2,-3.8281313E-1,4.2229387E-1,-4.9647023E-3,-2.8056392E-1,3.8747022E-1,-5.584083E-1,2.491834E-1,1.8126518E0,-1.5724543E-2,1.2375531E0,1.580354E-1,-5.01657E-1,2.302462E-1,-7.442025E-1,1.732846E0,9.2918664E-2,2.7712393E0,-4.6318267E-2,-2.1933287E-2,5.305409E-1,8.8685423E-1,1.4764518E-1,-8.490267E-3,1.7339288E0,-5.466629E-1,3.0193108E-1,1.0520609E-1,-8.483975E-1,-7.960223E-2,2.843848E0,3.3265075E-1,-5.9066814E-1,1.0802457E0,1.101351E-1,1.4688087E-1,-1.6021526E-1,-4.8334617E-2,3.9006245E-1,3.113599E-1,-1.9849655E-1,-8.857779E-1,2.5984514E-1,-7.7200525E-2,9.6678203E-1,-5.876584E-1,2.5590366E-1,-6.1802883E-2,-3.0115673E-1,1.847477E-1,1.1896508E0,5.2333087E-1,5.2021865E-2,-2.3663676E-1,1.6333516E-1,2.8242412E-1,-1.8310733E-2,-1.922388E-1,1.7935133E-1,-4.9975757E-3,-2.973657E-1,1.9687356E-1,-1.8285583E-1,2.7765784E-1,-1.8616432E-1],"categories":[],"categories_nodes":[],"categories_segments":[],"categories_sizes":[],"default_left":[0,0,0,0,0,0,0,0,0,0,0,0,0,0,0,0,0,0,0,0,0,0,0,0,0,0,0,0,0,0,0,0,0,0,0,0,0,0,0,0,0,0,0,0,0,0,0,0,0,0,0,0,0,0,0,0,0,0,0,0,0,0,0,0,0,0,0],"id":12,"left_children":[1,3,5,7,9,11,13,-1,15,17,19,21,23,25,27,-1,29,31,33,35,37,39,-1,-1,41,43,45,47,-1,-1,49,-1,51,53,55,-1,-1,-1,-1,57,59,-1,-1,61,63,-1,-1,65,-1,-1,-1,-1,-1,-1,-1,-1,-1,-1,-1,-1,-1,-1,-1,-1,-1,-1,-1],"loss_changes":[5.1547775E0,9.517399E0,7.7697916E0,6.5316257E0,1.3573132E1,8.29559E0,1.1967311E1,0E0,5.1494017E0,1.21215925E1,1.1341373E1,6.848333E0,9.542213E0,1.09965105E1,6.0985584E0,0E0,2.215046E0,1.1835607E1,8.224263E0,6.990906E0,1.0781391E0,6.6927867E0,0E0,0E0,3.79365E0,9.374046E0,1.2699327E1,5.0931683E0,0E0,0E0,1.3550949E0,0E0,5.7879276E0,7.9949484E0,3.3708458E0,0E0,0E0,0E0,0E0,7.3172836E0,8.321041E0,0E0,0E0,8.3802366E-1,1.0916982E1,0E0,0E0,4.4731426E0,0E0,0E0,0E0,0E0,0E0,0E0,0E0,0E0,0E0,0E0,0E0,0E0,0E0,0E0,0E0,0E0,0E0,0E0,0E0],"parents":[2147483647,0,0,1,1,2,2,3,3,4,4,5,5,6,6,8,8,9,9,10,10,11,11,12,12,13,13,14,14,16,16,17,17,18,18,19,19,20,20,21,21,24,24,25,25,26,26,27,27,30,30,32,32,33,33,34,34,39,39,40,40,43,43,44,44,47,47],"right_children":[2,4,6,8,10,12,14,-1,16,18,20,22,24,26,28,-1,30,32,34,36,38,40,-1,-1,42,44,46,48,-1,-1,50,-1,52,54,56,-1,-1,-1,-1,58,60,-1,-1,62,64,-1,-1,66,-1,-1,-1,-1,-1,-1,-1,-1,-1,-1,-1,-1,-1,-1,-1,-1,-1,-1,-1],"split_conditions":[-1.88E-1,-1.37E-1,1.05E-1,-1.98E-1,3.64E-1,2.3E-1,-2.4E-2,3.8747022E-1,-7.2E-2,-7.2E-2,0E0,2.41E-1,-1.1E-2,3.38E-1,2.83E-1,2.302462E-1,-1.12E-1,-2E-3,1.25E-1,1.6E-2,4.7E-2,3.6E-1,5.305409E-1,8.8685423E-1,-3.8E-2,-5.3E-2,-1.14E-1,1.55E-1,3.0193108E-1,1.0520609E-1,-3E-2,-7.960223E-2,1.06E-1,-1.65E-1,1.08E-1,1.0802457E0,1.101351E-1,1.4688087E-1,-1.6021526E-1,-1.83E-1,-2E-3,3.113599E-1,-1.9849655E-1,-1.03E-1,4.3E-2,-7.7200525E-2,9.6678203E-1,-2.12E-1,2.5590366E-1,-6.1802883E-2,-3.0115673E-1,1.847477E-1,1.1896508E0,5.2333087E-1,5.2021865E-2,-2.3663676E-1,1.6333516E-1,2.8242412E-1,-1.8310733E-2,-1.922388E-1,1.7935133E-1,-4.9975757E-3,-2.973657E-1,1.9687356E-1,-1.8285583E-1,2.7765784E-1,-1.8616432E-1],"split_indices":[30,16,20,36,6,81,100,0,95,72,85,125,122,34,42,0,109,95,22,126,110,26,0,0,82,134,2,117,0,0,84,0,29,65,54,0,0,0,0,102,157,0,0,82,81,0,0,168,0,0,0,0,0,0,0,0,0,0,0,0,0,0,0,0,0,0,0],"split_type":[0,0,0,0,0,0,0,0,0,0,0,0,0,0,0,0,0,0,0,0,0,0,0,0,0,0,0,0,0,0,0,0,0,0,0,0,0,0,0,0,0,0,0,0,0,0,0,0,0,0,0,0,0,0,0,0,0,0,0,0,0,0,0,0,0,0,0],"sum_hessian":[8.156661E2,7.6032684E1,7.396334E2,1.8762394E1,5.727029E1,6.180401E2,1.2159333E2,1.1776448E0,1.758475E1,5.1977863E1,5.2924285E0,6.137128E2,4.3272295E0,4.0847073E1,8.074626E1,1.7764561E0,1.5808292E1,3.991473E0,4.798639E1,3.168062E0,2.1243668E0,6.125689E2,1.1439466E0,1.014767E0,3.3124626E0,3.7842808E1,3.0042615E0,7.902542E1,1.7208345E0,1.1681023E0,1.464019E1,1.6982552E0,2.293218E0,3.5907204E1,1.2079186E1,1.9852518E0,1.1828103E0,1.0103538E0,1.1140128E0,5.7650806E2,3.6060852E1,1.4428831E0,1.8695794E0,8.324836E0,2.9517975E1,1.6390276E0,1.365234E0,7.7340324E1,1.6850975E0,3.3056571E0,1.1334533E1,1.2865951E0,1.0066227E0,2.630653E0,3.327655E1,1.054397E1,1.5352163E0,6.3779836E0,5.7013007E2,5.6994524E0,3.03614E1,1.0259795E0,7.2988563E0,2.0442188E1,9.075785E0,1.0678878E0,7.627244E1],"tree_param":{"num_deleted":"0","num_feature":"200","num_nodes":"67","size_leaf_vector":"1"}},{"base_weights":[-1.990246E-2,-4.2915863E-1,-4.7447598E-3,-6.5918356E-1,5.381769E-1,-4.5839047E-1,1.1474776E-2,2.600882E-1,-7.7234715E-1,-2.594145E-1,2.1999447E0,-5.790902E-1,2.8933936E-1,-2.453713E-1,4.296209E-2,-9.306818E-1,1.4479192E-1,8.812186E-1,1.2773384E-1,-7.1676195E-1,2.7120316E-1,1.0084955E0,-3.0235863E-1,-3.0137658E-1,7.324179E-2,-2.9405653E-1,-4.3523842E-3,-2.0754434E-1,4.0978283E-1,-8.1717604E-1,1.00534655E-1,-1.7550248E-1,5.6487757E-1,8.1317425E-1,-3.704258E-1,-4.0849176E-1,5.3844684E-1,-3.950571E-1,1.00575246E-1,-2.70039E-1,7.132355E-2,-1.870271E-1,4.999014E-1,3.9040416E-1,-1.2407953E-1,-1.5515952E-1,1.1974382E-1,-1.4754955E-1,3.8105989E-1,-7.269424E-3,6.0031824E-2],"categories":[],"categories_nodes":[],"categories_segments":[],"categories_sizes":[],"default_left":[0,0,0,0,0,0,0,0,0,0,0,0,0,0,0,0,0,0,0,0,0,0,0,0,0,0,0,0,0,0,0,0,0,0,0,0,0,0,0,0,0,0,0,0,0,0,0,0,0,0,0],"id":13,"left_children":[1,3,5,7,9,11,13,-1,15,-1,17,19,-1,21,23,25,27,-1,-1,29,-1,31,33,35,37,-1,-1,-1,-1,39,-1,-1,-1,41,43,45,-1,47,49,-1,-1,-1,-1,-1,-1,-1,-1,-1,-1,-1,-1],"loss_changes":[5.044391E0,6.817013E0,5.784568E0,4.7993813E0,1.619275E1,5.219131E0,6.1514273E0,0E0,3.4442987E0,0E0,2.7897768E0,5.8833036E0,0E0,6.240636E0,7.0833616E0,8.734093E-1,5.256923E0,0E0,0E0,2.8109703E0,0E0,6.4549756E0,6.393006E0,1.3068224E1,8.018241E0,0E0,0E0,0E0,0E0,2.1583023E0,0E0,0E0,0E0,7.077321E0,6.045248E0,4.866619E0,0E0,6.1970716E0,7.3305693E0,0E0,0E0,0E0,0E0,0E0,0E0,0E0,0E0,0E0,0E0,0E0,0E0],"parents":[2147483647,0,0,1,1,2,2,3,3,4,4,5,5,6,6,8,8,10,10,11,11,13,13,14,14,15,15,16,16,19,19,21,21,22,22,23,23,24,24,29,29,33,33,34,34,35,35,37,37,38,38],"right_children":[2,4,6,8,10,12,14,-1,16,-1,18,20,-1,22,24,26,28,-1,-1,30,-1,32,34,36,38,-1,-1,-1,-1,40,-1,-1,-1,42,44,46,-1,48,50,-1,-1,-1,-1,-1,-1,-1,-1,-1,-1,-1,-1],"split_conditions":[-2.47E-1,8.1E-2,-1.11E-1,-5.6E-2,1.57E-1,3.64E-1,-1.52E-1,2.600882E-1,9.1E-2,-2.594145E-1,0E0,9.2E-2,2.8933936E-1,-9.3E-2,-9.2E-2,2.08E-1,1.08E-1,8.812186E-1,1.2773384E-1,1.01E-1,2.7120316E-1,-4E-3,-1.11E-1,1.44E-1,-1.16E-1,-2.9405653E-1,-4.3523842E-3,-2.0754434E-1,4.0978283E-1,1.83E-1,1.00534655E-1,-1.7550248E-1,5.6487757E-1,-2E-3,-1.34E-1,7.9E-2,5.3844684E-1,5.6E-2,1.5E-2,-2.70039E-1,7.132355E-2,-1.870271E-1,4.999014E-1,3.9040416E-1,-1.2407953E-1,-1.5515952E-1,1.1974382E-1,-1.4754955E-1,3.8105989E-1,-7.269424E-3,6.0031824E-2],"split_indices":[70,121,90,124,62,6,31,0,188,0,160,95,0,115,126,36,160,0,0,158,0,141,93,82,122,0,0,0,0,100,0,0,0,84,112,84,0,141,35,0,0,0,0,0,0,0,0,0,0,0,0],"split_type":[0,0,0,0,0,0,0,0,0,0,0,0,0,0,0,0,0,0,0,0,0,0,0,0,0,0,0,0,0,0,0,0,0,0,0,0,0,0,0,0,0,0,0,0,0,0,0,0,0,0,0],"sum_hessian":[8.1249615E2,2.8042374E1,7.8445374E2,2.2912512E1,5.129861E0,2.613793E1,7.5831586E2,1.1218549E0,2.1790657E1,3.0416727E0,2.0881884E0,2.4640686E1,1.4972425E0,8.206973E1,6.762461E2,1.8569975E1,3.2206826E0,1.0119228E0,1.0762656E0,2.302048E1,1.6202078E0,2.841985E0,7.922775E1,5.393605E1,6.2231006E2,1.7551676E1,1.0182989E0,2.168514E0,1.0521685E0,2.121809E1,1.8023897E0,1.1242352E0,1.7177498E0,3.9267497E0,7.5301E1,5.207991E1,1.8561412E0,3.3577625E1,5.887324E2,1.9807274E1,1.4108157E0,1.5634382E0,2.3633118E0,1.1620004E0,7.4139E1,4.6218586E1,5.861324E0,3.2399418E1,1.1782082E0,2.6153598E2,3.2719644E2],"tree_param":{"num_deleted":"0","num_feature":"200","num_nodes":"51","size_leaf_vector":"1"}},{"base_weights":[-1.6392222E-2,-3.8267528E-3,-4.9936172E-1,-1.8032748E-1,3.267387E-2,3.184424E-1,-7.1511275E-1,1.8013254E0,-2.3630145E-1,-3.6664826E-1,5.662666E-2,-9.720901E-1,-1.3846937E-1,-7.062412E-2,9.9732137E-1,4.079025E-1,-3.316653E-1,8.298247E-1,-5.643705E-1,9.329067E-1,4.05845E-2,-1.023238E0,-5.8021627E-2,-2.3352274E-1,6.9696486E-1,1.0322925E0,-4.588741E-1,6.6535974E-1,-3.8102427E-1,1.678721E0,-3.3718324E-1,-6.833513E-1,4.4881403E-1,1.7800654E-1,1.2462769E0,-7.880713E-1,5.9502658E-2,-8.4966764E-2,-3.2071334E-1,4.996176E-1,-1.6944149E-1,-7.758577E-2,5.508822E-1,-2.7019426E-1,1.09191E-1,4.6614465E-1,-1.2846328E-1,1.5727392E-1,-1.3096511E-1,7.945577E-1,-3.973756E-2,-1.9253023E-1,5.107066E-2,-2.27001E-1,1.2782481E-1,4.261038E-1,-1.3553539E-1,2.4260515E-1,-1.24102965E-1,1.2874246E-1,4.416159E-1,-2.9892012E-1,1.13198176E-1,-2.052262E-1,2.2904668E-2],"categories":[],"categories_nodes":[],"categories_segments":[],"categories_sizes":[],"default_left":[0,0,0,0,0,0,0,0,0,0,0,0,0,0,0,0,0,0,0,0,0,0,0,0,0,0,0,0,0,0,0,0,0,0,0,0,0,0,0,0,0,0,0,0,0,0,0,0,0,0,0,0,0,0,0,0,0,0,0,0,0,0,0,0,0],"id":14,"left_children":[1,3,5,7,9,-1,11,13,15,17,19,21,23,-1,-1,25,27,29,31,33,35,37,-1,-1,39,41,43,45,47,49,51,53,55,57,59,61,63,-1,-1,-1,-1,-1,-1,-1,-1,-1,-1,-1,-1,-1,-1,-1,-1,-1,-1,-1,-1,-1,-1,-1,-1,-1,-1,-1,-1],"loss_changes":[4.9121003E0,5.0966682E0,7.67084E0,1.5462638E1,6.291838E0,0E0,2.6260262E0,1.2694599E1,8.289073E0,9.277149E0,8.669308E0,3.0873966E-1,4.236278E0,0E0,0E0,9.978748E0,5.9701033E0,6.198481E0,4.230608E0,2.401659E0,9.598824E0,9.39455E-2,0E0,0E0,5.247165E0,1.1389624E1,3.2526994E0,6.3429546E0,5.8244133E0,6.4258146E0,6.079742E-1,2.7241E0,4.1628127E0,1.9838439E0,7.8336143E-1,3.6949139E0,7.5261526E0,0E0,0E0,0E0,0E0,0E0,0E0,0E0,0E0,0E0,0E0,0E0,0E0,0E0,0E0,0E0,0E0,0E0,0E0,0E0,0E0,0E0,0E0,0E0,0E0,0E0,0E0,0E0,0E0],"parents":[2147483647,0,0,1,1,2,2,3,3,4,4,6,6,7,7,8,8,9,9,10,10,11,11,12,12,15,15,16,16,17,17,18,18,19,19,20,20,21,21,24,24,25,25,26,26,27,27,28,28,29,29,30,30,31,31,32,32,33,33,34,34,35,35,36,36],"right_children":[2,4,6,8,10,-1,12,14,16,18,20,22,24,-1,-1,26,28,30,32,34,36,38,-1,-1,40,42,44,46,48,50,52,54,56,58,60,62,64,-1,-1,-1,-1,-1,-1,-1,-1,-1,-1,-1,-1,-1,-1,-1,-1,-1,-1,-1,-1,-1,-1,-1,-1,-1,-1,-1,-1],"split_conditions":[4.14E-1,-6E-2,-1.97E-1,-8.2E-2,-2.29E-1,3.184424E-1,2.2E-2,8E-2,-4E-3,-1.98E-1,-2.64E-1,1.05E-1,0E0,-7.062412E-2,9.9732137E-1,3.5E-2,-1.63E-1,1E-3,2.4E-1,-1.86E-1,-2.06E-1,-1E-2,-5.8021627E-2,-2.3352274E-1,1.1E-2,-1.2E-2,3.1E-2,-3.3E-2,-1.17E-1,3.8E-2,5.2E-2,1.17E-1,1E-3,6.2E-2,-7.9E-2,3.25E-1,-5.8E-2,-8.4966764E-2,-3.2071334E-1,4.996176E-1,-1.6944149E-1,-7.758577E-2,5.508822E-1,-2.7019426E-1,1.09191E-1,4.6614465E-1,-1.2846328E-1,1.5727392E-1,-1.3096511E-1,7.945577E-1,-3.973756E-2,-1.9253023E-1,5.107066E-2,-2.27001E-1,1.2782481E-1,4.261038E-1,-1.3553539E-1,2.4260515E-1,-1.24102965E-1,1.2874246E-1,4.416159E-1,-2.9892012E-1,1.13198176E-1,-2.052262E-1,2.2904668E-2],"split_indices":[32,101,14,165,119,0,81,22,69,150,133,83,103,0,0,35,82,12,149,16,197,151,0,0,157,36,188,74,158,191,132,181,84,48,105,119,141,0,0,0,0,0,0,0,0,0,0,0,0,0,0,0,0,0,0,0,0,0,0,0,0,0,0,0,0],"split_type":[0,0,0,0,0,0,0,0,0,0,0,0,0,0,0,0,0,0,0,0,0,0,0,0,0,0,0,0,0,0,0,0,0,0,0,0,0,0,0,0,0,0,0,0,0,0,0,0,0,0,0,0,0,0,0,0,0,0,0,0,0,0,0,0,0],"sum_hessian":[8.087253E2,7.892005E2,1.952479E1,1.3456479E2,6.546357E2,1.8950769E0,1.7629713E1,2.839958E0,1.3172482E2,3.6235687E1,6.184E2,1.1720691E1,5.9090233E0,1.5768069E0,1.2631512E0,1.6562712E1,1.1516212E2,4.6854978E0,3.1550188E1,1.0090085E1,6.0830994E2,1.0703569E1,1.0171217E0,3.3846505E0,2.5243728E0,9.516479E0,7.0462327E0,4.843615E0,1.103185E2,2.458599E0,2.2268987E0,2.8525866E1,3.0243227E0,3.419835E0,6.67025E0,1.2670222E1,5.956397E2,1.0426311E0,9.660938E0,1.2472241E0,1.2771486E0,3.9125786E0,5.6039E0,4.5232234E0,2.523009E0,2.4402251E0,2.4033902E0,5.88765E0,1.0443085E2,1.300122E0,1.1584771E0,1.2261306E0,1.0007681E0,2.7055809E1,1.4700567E0,1.1772436E0,1.847079E0,1.477844E0,1.9419912E0,2.0719883E0,4.598262E0,1.0871774E1,1.7984481E0,1.2317993E1,5.833217E2],"tree_param":{"num_deleted":"0","num_feature":"200","num_nodes":"65","size_leaf_vector":"1"}},{"base_weights":[-1.4551256E-2,-5.291363E-1,-3.8619202E-3,6.485366E-1,-7.376714E-1,-9.2951484E-2,6.817577E-2,-3.626828E-3,2.9589128E-1,1.3758735E-1,-8.6472535E-1,-6.887148E-2,-8.251014E-1,-7.9836774E-1,8.615664E-2,-3.1252604E-3,-2.8019157E-1,9.670477E-1,-8.510219E-2,8.544776E-2,-3.0075592E-1,-2.6901627E-1,-4.8541767E-3,7.695936E-2,4.9381033E-1,-9.7584754E-2,7.1426666E-1,-1.0280433E-1,8.999836E-1,-3.8489131E-3,2.583755E-1,1.4529164E-1,-1.888805E-1,-3.8536817E-2,1.4763081E-1,-5.0277486E-2,6.821301E-1,-8.511187E-2,3.1233847E-2,5.1688695E-1,5.9413485E-2],"categories":[],"categories_nodes":[],"categories_segments":[],"categories_sizes":[],"default_left":[0,0,0,0,0,0,0,0,0,0,0,0,0,0,0,0,0,0,0,0,0,0,0,0,0,0,0,0,0,0,0,0,0,0,0,0,0,0,0,0,0],"id":15,"left_children":[1,3,5,7,9,11,13,-1,-1,-1,15,17,19,21,23,-1,-1,25,27,-1,-1,-1,-1,29,-1,31,-1,33,35,37,39,-1,-1,-1,-1,-1,-1,-1,-1,-1,-1],"loss_changes":[4.441805E0,4.514167E0,5.09216E0,6.822946E-1,2.5896916E0,6.1969204E0,6.9048305E0,0E0,0E0,0E0,7.8240204E-1,5.8748646E0,2.491838E0,6.791091E-1,6.0527086E0,0E0,0E0,8.353678E0,6.0235615E0,0E0,0E0,0E0,0E0,6.2936916E0,0E0,1.5551246E0,0E0,5.1756325E0,9.33713E0,9.031828E0,1.1348024E1,0E0,0E0,0E0,0E0,0E0,0E0,0E0,0E0,0E0,0E0],"parents":[2147483647,0,0,1,1,2,2,3,3,4,4,5,5,6,6,10,10,11,11,12,12,13,13,14,14,17,17,18,18,23,23,25,25,27,27,28,28,29,29,30,30],"right_children":[2,4,6,8,10,12,14,-1,-1,-1,16,18,20,22,24,-1,-1,26,28,-1,-1,-1,-1,30,-1,32,-1,34,36,38,40,-1,-1,-1,-1,-1,-1,-1,-1,-1,-1],"split_conditions":[-1.61E-1,-3.3E-2,-8E-3,-2.9E-2,-8.5E-2,8.4E-2,-6.1E-2,-3.626828E-3,2.9589128E-1,1.3758735E-1,-1.06E-1,-2.5E-1,0E0,1.13E-1,9.05E-1,-3.1252604E-3,-2.8019157E-1,3.2E-2,8.7E-2,8.544776E-2,-3.0075592E-1,-2.6901627E-1,-4.8541767E-3,8E-2,4.9381033E-1,-1.5E-2,7.1426666E-1,1.7E-2,5.1E-2,-8E-3,-4.02E-1,1.4529164E-1,-1.888805E-1,-3.8536817E-2,1.4763081E-1,-5.0277486E-2,6.821301E-1,-8.511187E-2,3.1233847E-2,5.1688695E-1,5.9413485E-2],"split_indices":[110,102,147,115,35,85,177,0,0,0,105,81,136,154,111,0,0,93,189,0,0,0,0,22,0,157,0,154,82,84,35,0,0,0,0,0,0,0,0,0,0],"split_type":[0,0,0,0,0,0,0,0,0,0,0,0,0,0,0,0,0,0,0,0,0,0,0,0,0,0,0,0,0,0,0,0,0,0,0,0,0,0,0,0,0],"sum_hessian":[8.068883E2,1.5433179E1,7.9145514E2,2.004286E0,1.3428892E1,3.5371848E2,4.3773666E2,1.0042742E0,1.0000117E0,1.0387454E0,1.2390147E1,3.4351453E2,1.0203933E1,8.016171E0,4.297205E2,1.0152497E0,1.1374897E1,4.395447E0,3.3911908E2,1.3228436E0,8.881089E0,6.9907227E0,1.0254486E0,4.2824484E2,1.4756601E0,3.0384507E0,1.3569962E0,3.3401248E2,5.106615E0,2.969521E2,1.3129272E2,1.4940372E0,1.5444136E0,3.2095724E2,1.3055239E1,3.3676229E0,1.7389921E0,8.2212875E1,2.1473923E2,4.104065E0,1.2718867E2],"tree_param":{"num_deleted":"0","num_feature":"200","num_nodes":"41","size_leaf_vector":"1"}},{"base_weights":[-1.2026337E-2,-3.690437E-1,2.6017406E-3,-4.755549E-1,4.253516E-1,-3.3244092E-2,1.6865167E-1,8.2139707E-1,-6.022207E-1,6.3166755E-1,-4.9868196E-2,6.6752386E-1,2.4725741E-3,-4.3957517E-2,4.3491977E-1,3.0404067E-1,-7.0984614E-1,1.6780332E0,-5.7850108E-2,-2.5745789E-2,-5.6686217E-1,1.921913E0,2.6558298E-1,-8.388933E-1,8.200863E-2,1.1126501E-1,-7.9717E-1,1.1325334E0,2.1432978E-1,-7.543304E-1,1.3012606E0,8.9938116E-1,-4.0334623E-2,2.710918E-1,-6.91776E-1,2.7096455E0,-8.79935E-2,-4.146275E-2,1.5690024E0,-4.065371E-3,-2.8239942E-1,5.947104E-1,-8.008954E-2,-2.602947E-1,8.651182E-2,-2.3209988E-1,5.745892E-1,-2.6942486E-1,-4.137688E-2,-1.957522E-1,9.8335457E-1,2.9607339E-2,7.155091E-1,-2.0973142E-2,1.1322533E-1,-2.778603E-1,5.25865E-2,-2.2368046E-2,1.0175818E0,-1.6879234E-1,1.4784662E-1,-7.55238E-2,5.304273E-1,7.685408E-1,-1.114455E-1,5.186666E-1,5.3125573E-3,2.4355498E-1,-5.326765E-2],"categories":[],"categories_nodes":[],"categories_segments":[],"categories_sizes":[],"default_left":[0,0,0,0,0,0,0,0,0,0,0,0,0,0,0,0,0,0,0,0,0,0,0,0,0,0,0,0,0,0,0,0,0,0,0,0,0,0,0,0,0,0,0,0,0,0,0,0,0,0,0,0,0,0,0,0,0,0,0,0,0,0,0,0,0,0,0,0,0],"id":16,"left_children":[1,3,5,7,-1,9,11,13,15,17,19,21,23,-1,-1,-1,25,27,29,31,33,35,37,39,41,-1,43,-1,45,47,49,51,53,-1,55,57,59,61,63,-1,-1,65,67,-1,-1,-1,-1,-1,-1,-1,-1,-1,-1,-1,-1,-1,-1,-1,-1,-1,-1,-1,-1,-1,-1,-1,-1,-1,-1],"loss_changes":[4.2107034E0,6.7140846E0,4.6206245E0,5.5377536E0,0E0,7.089444E0,1.14243E1,2.1308558E0,5.6828747E0,1.13869705E1,7.7658277E0,1.6851398E1,7.0544295E0,0E0,0E0,0E0,2.876707E0,1.8372095E1,1.0825318E1,8.095187E0,5.724989E0,1.3214901E1,1.0966387E1,7.570324E-1,8.049651E0,0E0,2.2105103E0,0E0,9.44835E0,5.4148006E-1,1.7162811E1,1.0842722E1,7.3012004E0,0E0,5.479001E0,1.1498238E1,1.1805009E0,9.204661E0,1.1006263E1,0E0,0E0,1.51833105E1,6.58066E0,0E0,0E0,0E0,0E0,0E0,0E0,0E0,0E0,0E0,0E0,0E0,0E0,0E0,0E0,0E0,0E0,0E0,0E0,0E0,0E0,0E0,0E0,0E0,0E0,0E0,0E0],"parents":[2147483647,0,0,1,1,2,2,3,3,5,5,6,6,7,7,8,8,9,9,10,10,11,11,12,12,16,16,17,17,18,18,19,19,20,20,21,21,22,22,23,23,24,24,26,26,28,28,29,29,30,30,31,31,32,32,34,34,35,35,36,36,37,37,38,38,41,41,42,42],"right_children":[2,4,6,8,-1,10,12,14,16,18,20,22,24,-1,-1,-1,26,28,30,32,34,36,38,40,42,-1,44,-1,46,48,50,52,54,-1,56,58,60,62,64,-1,-1,66,68,-1,-1,-1,-1,-1,-1,-1,-1,-1,-1,-1,-1,-1,-1,-1,-1,-1,-1,-1,-1,-1,-1,-1,-1,-1,-1],"split_conditions":[-8.3E-2,1.1E-1,5.2E-2,-1.38E-1,4.253516E-1,-2.49E-1,4.5E-2,-1.6E-2,-1.4E-1,6E-3,2.69E-1,-4.8E-2,-3.6E-2,-4.3957517E-2,4.3491977E-1,3.0404067E-1,-1.3E-1,-1.86E-1,1.42E-1,-1.68E-1,-1.48E-1,0E0,3E-3,-1.17E-1,-4.5E-2,1.1126501E-1,2.94E-1,1.1325334E0,1.6E-1,9.4E-2,-1.1E-2,2.4E-2,1.59E-1,2.710918E-1,7.8E-2,-5.4E-2,4.3E-2,3.03E-1,1E-3,-4.065371E-3,-2.8239942E-1,1.16E-1,1E-2,-2.602947E-1,8.651182E-2,-2.3209988E-1,5.745892E-1,-2.6942486E-1,-4.137688E-2,-1.957522E-1,9.8335457E-1,2.9607339E-2,7.155091E-1,-2.0973142E-2,1.1322533E-1,-2.778603E-1,5.25865E-2,-2.2368046E-2,1.0175818E0,-1.6879234E-1,1.4784662E-1,-7.55238E-2,5.304273E-1,7.685408E-1,-1.114455E-1,5.186666E-1,5.3125573E-3,2.4355498E-1,-5.326765E-2],"split_indices":[76,72,110,28,0,24,28,72,96,72,20,36,95,0,0,0,78,5,50,168,151,18,182,36,72,0,46,0,29,74,63,2,6,0,147,132,63,20,84,0,0,110,61,0,0,0,0,0,0,0,0,0,0,0,0,0,0,0,0,0,0,0,0,0,0,0,0,0,0],"split_type":[0,0,0,0,0,0,0,0,0,0,0,0,0,0,0,0,0,0,0,0,0,0,0,0,0,0,0,0,0,0,0,0,0,0,0,0,0,0,0,0,0,0,0,0,0,0,0,0,0,0,0,0,0,0,0,0,0,0,0,0,0,0,0,0,0,0,0,0,0],"sum_hessian":[8.050814E2,3.073461E1,7.7434686E2,2.9698242E1,1.0363683E0,6.375223E2,1.3682457E2,2.1543849E0,2.7543856E1,1.4648083E1,6.228742E2,3.3435074E1,1.033895E2,1.1498688E0,1.004516E0,1.1945436E0,2.6349314E1,5.248968E0,9.399116E0,5.961101E2,2.6764086E1,7.196E0,2.6239075E1,8.104919E0,9.5284584E1,1.727116E0,2.4622196E1,1.5085241E0,3.740444E0,6.5086966E0,2.8904185E0,8.312896E0,5.877972E2,1.6074055E0,2.515668E1,4.9197016E0,2.2762985E0,2.2020021E1,4.2190537E0,1.0198983E0,7.0850205E0,2.2247845E1,7.3036736E1,2.3309544E1,1.3126537E0,2.7109609E0,1.0294831E0,4.9073014E0,1.6013951E0,1.7904859E0,1.0999326E0,6.0946283E0,2.218268E0,5.497116E2,3.808559E1,1.9749008E1,5.407671E0,1.1436365E0,3.776065E0,1.269854E0,1.0064446E0,2.0498793E1,1.5212287E0,2.579258E0,1.6397957E0,6.828714E0,1.541913E1,6.4730153E0,6.656372E1],"tree_param":{"num_deleted":"0","num_feature":"200","num_nodes":"69","size_leaf_vector":"1"}},{"base_weights":[-1.3388407E-2,1.1452507E0,-1.804652E-2,-1.6648753E-1,7.3705494E-1,-5.6261986E-1,-6.395766E-3,-7.79961E-1,3.135058E-1,5.7397074E-1,-1.9554112E-2,-8.9875555E-1,1.3297717E-1,1.5169299E0,1.4555441E-1,-2.1471109E-3,-4.4147485E-1,-2.420394E-3,-2.8941104E-1,2.6971045E0,-9.680152E-2,6.04678E-1,-5.5167055E-1,-6.061899E-1,8.664785E-3,6.706814E-1,-5.665374E-1,1.0993755E0,1.3173667E-1,1.459029E-1,-1.7338021E-1,3.026235E-1,-1.9018689E-1,-2.4907917E-1,1.13250576E-1,-2.6179156E-1,1.615369E-1,-2.8394158E-3,1.6777778E-1,4.8977864E-1,-1.7257346E-1,-2.0608233E-1,2.4046813E-1],"categories":[],"categories_nodes":[],"categories_segments":[],"categories_sizes":[],"default_left":[0,0,0,0,0,0,0,0,0,0,0,0,0,0,0,0,0,0,0,0,0,0,0,0,0,0,0,0,0,0,0,0,0,0,0,0,0,0,0,0,0,0,0],"id":17,"left_children":[1,3,5,-1,-1,7,9,11,-1,13,15,17,-1,19,21,23,25,-1,-1,27,29,31,33,35,37,39,41,-1,-1,-1,-1,-1,-1,-1,-1,-1,-1,-1,-1,-1,-1,-1,-1],"loss_changes":[4.3864737E0,8.621234E0,5.114451E0,0E0,0E0,6.7148156E0,6.0501537E0,2.6429806E0,0E0,6.8748693E0,5.6851916E0,8.386297E-1,0E0,1.0509066E1,4.5537724E0,4.8677683E0,4.6459756E0,0E0,0E0,5.256071E0,1.1896521E0,4.8566895E0,1.8037838E0,4.467233E0,7.316507E0,5.203616E0,5.1814785E0,0E0,0E0,0E0,0E0,0E0,0E0,0E0,0E0,0E0,0E0,0E0,0E0,0E0,0E0,0E0,0E0],"parents":[2147483647,0,0,1,1,2,2,5,5,6,6,7,7,9,9,10,10,11,11,13,13,14,14,15,15,16,16,19,19,20,20,21,21,22,22,23,23,24,24,25,25,26,26],"right_children":[2,4,6,-1,-1,8,10,12,-1,14,16,18,-1,20,22,24,26,-1,-1,28,30,32,34,36,38,40,42,-1,-1,-1,-1,-1,-1,-1,-1,-1,-1,-1,-1,-1,-1,-1,-1],"split_conditions":[-1.38E-1,-7.8E-2,-1.31E-1,-1.6648753E-1,7.3705494E-1,3.8E-2,-7.7E-2,9.2E-2,3.135058E-1,-9E-2,5.6E-2,-1.06E-1,1.3297717E-1,-2E-2,3E-3,-2.73E-1,-2.5E-1,-2.420394E-3,-2.8941104E-1,-9.5E-2,-1.5E-2,4.1E-2,1.5E-1,1.81E-1,5.9E-2,-2E-2,2.84E-1,1.0993755E0,1.3173667E-1,1.459029E-1,-1.7338021E-1,3.026235E-1,-1.9018689E-1,-2.4907917E-1,1.13250576E-1,-2.6179156E-1,1.615369E-1,-2.8394158E-3,1.6777778E-1,4.8977864E-1,-1.7257346E-1,-2.0608233E-1,2.4046813E-1],"split_indices":[194,71,187,0,0,157,193,112,0,48,188,105,0,85,63,70,160,0,0,69,59,100,59,22,160,74,118,0,0,0,0,0,0,0,0,0,0,0,0,0,0,0,0],"split_type":[0,0,0,0,0,0,0,0,0,0,0,0,0,0,0,0,0,0,0,0,0,0,0,0,0,0,0,0,0,0,0,0,0,0,0,0,0,0,0,0,0,0,0],"sum_hessian":[8.07921E2,2.2546225E0,8.0566644E2,1.2330804E0,1.021542E0,1.5885059E1,7.897814E2,1.4446798E1,1.4382612E0,1.6564434E1,7.732169E2,1.3409745E1,1.0370529E0,4.3809743E0,1.218346E1,7.435459E2,2.9671059E1,1.0018038E0,1.2407942E1,2.142643E0,2.2383313E0,7.4261E0,4.7573605E0,1.2106539E1,7.3143933E2,2.5582533E0,2.7112806E1,1.0638621E0,1.0787808E0,1.0069968E0,1.2313347E0,5.7393947E0,1.6867052E0,3.7418818E0,1.0154785E0,1.0013297E1,2.093242E0,7.0907434E2,2.2364985E1,1.2685366E0,1.2897168E0,2.5377285E1,1.7355204E0],"tree_param":{"num_deleted":"0","num_feature":"200","num_nodes":"43","size_leaf_vector":"1"}},{"base_weights":[-1.0555169E-2,3.7967515E-1,-2.3496516E-2,1.3733314E-1,2.0880926E0,-4.8668206E-1,-2.7705864E-3,9.240848E-1,-1.9206156E-1,8.723095E-1,9.337694E-2,-6.978107E-1,2.113336E-1,1.3411649E-2,-4.4496405E-1,6.763308E-1,9.935431E-2,-8.47011E-1,2.9738995E-1,2.585625E-1,-7.9858184E-1,-2.2961459E-1,9.1514075E-1,4.1508153E-1,7.933932E-3,1.2544976E0,-7.20288E-1,3.631273E-1,-4.4329673E-1,-6.304544E-2,-2.7340794E-1,8.5520667E-1,-5.2745265E-1,5.8949646E-2,-9.502231E-1,-9.389715E-2,1.6105006E0,1.0341636E0,1.689866E-3,-9.3326345E-2,6.5992546E-1,-8.3207977E-1,1.3378334E-1,-2.3861288E-1,1.1161283E-1,-1.9430412E-1,4.451139E-1,6.682464E-2,-2.3995669E-1,3.088928E-1,-2.088083E-1,-3.0031988E-1,-4.9680728E-3,3.9967157E-2,7.6543707E-1,7.1881944E-1,-1.08325176E-1,-1.0908077E-1,5.3303717E-3,-3.019755E-1,-6.843761E-2],"categories":[],"categories_nodes":[],"categories_segments":[],"categories_sizes":[],"default_left":[0,0,0,0,0,0,0,0,0,0,0,0,0,0,0,0,0,0,0,0,0,0,0,0,0,0,0,0,0,0,0,0,0,0,0,0,0,0,0,0,0,0,0,0,0,0,0,0,0,0,0,0,0,0,0,0,0,0,0,0,0],"id":18,"left_children":[1,3,5,7,9,11,13,15,17,-1,-1,19,21,23,25,-1,27,29,31,-1,33,-1,35,-1,37,39,41,-1,43,-1,-1,45,47,49,51,-1,53,55,57,-1,-1,59,-1,-1,-1,-1,-1,-1,-1,-1,-1,-1,-1,-1,-1,-1,-1,-1,-1,-1,-1],"loss_changes":[4.0820084E0,1.04559E1,7.5018578E0,6.343773E0,3.6866913E0,5.079936E0,5.3664174E0,7.669295E0,5.8938484E0,0E0,0E0,4.7636576E0,6.571091E0,5.420344E0,1.3291645E1,0E0,3.844886E0,1.2760592E-1,5.4261403E0,0E0,3.2906876E0,0E0,5.1318192E0,0E0,4.623224E0,6.6866546E0,3.4244137E0,0E0,1.5643122E0,0E0,0E0,7.414254E0,1.1960262E0,4.145943E0,9.895859E-1,0E0,4.6957865E0,9.15642E0,4.2257776E0,0E0,0E0,2.0595198E0,0E0,0E0,0E0,0E0,0E0,0E0,0E0,0E0,0E0,0E0,0E0,0E0,0E0,0E0,0E0,0E0,0E0,0E0,0E0],"parents":[2147483647,0,0,1,1,2,2,3,3,4,4,5,5,6,6,7,7,8,8,11,11,12,12,13,13,14,14,16,16,17,17,18,18,20,20,22,22,24,24,25,25,26,26,28,28,31,31,32,32,33,33,34,34,36,36,37,37,38,38,41,41],"right_children":[2,4,6,8,10,12,14,16,18,-1,-1,20,22,24,26,-1,28,30,32,-1,34,-1,36,-1,38,40,42,-1,44,-1,-1,46,48,50,52,-1,54,56,58,-1,-1,60,-1,-1,-1,-1,-1,-1,-1,-1,-1,-1,-1,-1,-1,-1,-1,-1,-1,-1,-1],"split_conditions":[-1.06E-1,7.4E-2,-8.5E-2,0E0,1.1E-1,6.4E-2,6.4E-2,-1.31E-1,-1.21E-1,8.723095E-1,9.337694E-2,-2.65E-1,-3.2E-2,-1.93E-1,-4.3E-2,6.763308E-1,-2.1E-1,-1.33E-1,1.9E-2,2.585625E-1,-1.1E-1,-2.2961459E-1,8.7E-2,4.1508153E-1,-3.19E-1,4.9E-2,7.5E-2,3.631273E-1,1.23E-1,-6.304544E-2,-2.7340794E-1,-2E-3,-2.01E-1,-1.46E-1,1.78E-1,-9.389715E-2,-6.2E-2,-8.8E-2,-1.78E-1,-9.3326345E-2,6.5992546E-1,1.6E-2,1.3378334E-1,-2.3861288E-1,1.1161283E-1,-1.9430412E-1,4.451139E-1,6.682464E-2,-2.3995669E-1,3.088928E-1,-2.088083E-1,-3.0031988E-1,-4.9680728E-3,3.9967157E-2,7.6543707E-1,7.1881944E-1,-1.08325176E-1,-1.0908077E-1,5.3303717E-3,-3.019755E-1,-6.843761E-2],"split_indices":[134,185,132,122,185,93,153,30,132,0,0,150,82,165,124,0,10,36,141,0,36,0,28,0,131,48,105,0,71,0,0,95,40,24,150,0,112,192,53,0,0,52,0,0,0,0,0,0,0,0,0,0,0,0,0,0,0,0,0,0,0],"split_type":[0,0,0,0,0,0,0,0,0,0,0,0,0,0,0,0,0,0,0,0,0,0,0,0,0,0,0,0,0,0,0,0,0,0,0,0,0,0,0,0,0,0,0,0,0,0,0,0,0,0,0,0,0,0,0,0,0,0,0,0,0],"sum_hessian":[8.055351E2,2.494713E1,7.8058795E2,2.2794128E1,2.153001E0,3.246969E1,7.481183E2,6.1941476E0,1.6599981E1,1.037831E0,1.1151701E0,2.4929548E1,7.5401416E0,7.226426E2,2.5475702E1,1.7070336E0,4.487114E0,6.787242E0,9.812739E0,1.0545743E0,2.3874973E1,3.1211898E0,4.4189515E0,1.8756686E0,7.207669E2,3.055976E0,2.2419727E1,1.0685984E0,3.4185154E0,1.0143214E0,5.7729206E0,5.831951E0,3.980788E0,3.6793723E0,2.01956E1,1.7962811E0,2.6226704E0,3.3633757E0,7.174035E2,1.4030522E0,1.6529236E0,2.0720081E1,1.6996462E0,2.4046326E0,1.0138828E0,1.7107323E0,4.1212187E0,1.1089653E0,2.8718228E0,1.4505537E0,2.2288187E0,1.9084167E1,1.1114324E0,1.464705E0,1.1579654E0,1.339037E0,2.0243387E0,2.9333466E1,6.8807007E2,1.55581045E1,5.1619763E0],"tree_param":{"num_deleted":"0","num_feature":"200","num_nodes":"61","size_leaf_vector":"1"}},{"base_weights":[-8.6129615E-3,-3.0626678E-1,7.497571E-3,-4.4981173E-1,9.87114E-1,2.4754044E-2,-3.2395014E-1,-5.536E-1,3.0222654E-1,6.9229174E-1,-3.8100052E-1,2.069154E-2,4.453212E-1,4.1234165E-1,-4.1146615E-1,6.1597824E-1,-6.592771E-1,-6.105847E-3,-1.6447516E-1,3.6972422E-2,-4.525923E-1,-5.6770384E-1,3.3965874E-1,-1.7586061E-1,4.647303E-1,2.3749958E-1,-7.321507E-1,-1.1915684E-2,1.8489426E-1,-6.856677E-1,3.6852056E-1,-7.151266E-1,5.1011914E-1,4.352903E-1,-2.06501E-1,-2.446626E-1,1.7483531E-1,-1.2315909E-2,1.484122E-1,-7.309012E-2,9.4693966E-2,-2.4699096E-1,2.7060446E-1,3.278613E-1,-1.615417E-1,2.0624287E-1,-2.4407032E-1,4.316356E-1,-1.3583617E-1,-2.2002405E-1,1.3747689E-1],"categories":[],"categories_nodes":[],"categories_segments":[],"categories_sizes":[],"default_left":[0,0,0,0,0,0,0,0,0,0,0,0,0,0,0,0,0,0,0,0,0,0,0,0,0,0,0,0,0,0,0,0,0,0,0,0,0,0,0,0,0,0,0,0,0,0,0,0,0,0,0],"id":19,"left_children":[1,3,5,7,9,11,13,15,-1,-1,17,19,-1,-1,21,23,25,-1,-1,27,29,31,33,-1,-1,-1,35,37,39,41,43,45,47,-1,49,-1,-1,-1,-1,-1,-1,-1,-1,-1,-1,-1,-1,-1,-1,-1,-1],"loss_changes":[3.8598056E0,8.116878E0,4.3783636E0,6.287772E0,8.9035E0,4.281536E0,6.1966248E0,4.8571825E0,0E0,0E0,1.7219564E-1,5.6125197E0,0E0,0E0,4.5111446E0,4.8357286E0,4.122966E0,0E0,0E0,5.0859056E0,4.8891196E0,5.2644424E0,4.525081E0,0E0,0E0,0E0,4.031185E0,7.833641E0,9.864579E0,4.942504E0,4.534769E0,4.3621054E0,4.491086E0,0E0,2.2776916E0,0E0,0E0,0E0,0E0,0E0,0E0,0E0,0E0,0E0,0E0,0E0,0E0,0E0,0E0,0E0,0E0],"parents":[2147483647,0,0,1,1,2,2,3,3,4,4,5,5,6,6,7,7,10,10,11,11,14,14,15,15,16,16,19,19,20,20,21,21,22,22,26,26,27,27,28,28,29,29,30,30,31,31,32,32,34,34],"right_children":[2,4,6,8,10,12,14,16,-1,-1,18,20,-1,-1,22,24,26,-1,-1,28,30,32,34,-1,-1,-1,36,38,40,42,44,46,48,-1,50,-1,-1,-1,-1,-1,-1,-1,-1,-1,-1,-1,-1,-1,-1,-1,-1],"split_conditions":[-1.19E-1,2.3E-1,1.16E-1,2.18E-1,-1.37E-1,2.6E-1,-2E-1,-2.6E-2,3.0222654E-1,6.9229174E-1,-2.9E-2,1.6E-1,4.453212E-1,4.1234165E-1,6.9E-2,3.4E-2,-1.71E-1,-6.105847E-3,-1.6447516E-1,5.2E-2,4.1E-2,9.4E-2,-4.4E-2,-1.7586061E-1,4.647303E-1,2.3749958E-1,3.9E-2,5.1E-2,-8.1E-2,1.39E-1,7E-3,-2.53E-1,-1.45E-1,4.352903E-1,1.12E-1,-2.446626E-1,1.7483531E-1,-1.2315909E-2,1.484122E-1,-7.309012E-2,9.4693966E-2,-2.4699096E-1,2.7060446E-1,3.278613E-1,-1.615417E-1,2.0624287E-1,-2.4407032E-1,4.316356E-1,-1.3583617E-1,-2.2002405E-1,1.3747689E-1],"split_indices":[97,20,122,145,93,126,44,173,0,0,102,103,0,0,117,63,198,0,0,103,122,95,31,0,0,0,182,157,40,118,84,30,2,0,53,0,0,0,0,0,0,0,0,0,0,0,0,0,0,0,0],"split_type":[0,0,0,0,0,0,0,0,0,0,0,0,0,0,0,0,0,0,0,0,0,0,0,0,0,0,0,0,0,0,0,0,0,0,0,0,0,0,0,0,0,0,0,0,0,0,0,0,0,0,0],"sum_hessian":[8.034251E2,4.0327877E1,7.630972E2,3.68863E1,3.4415793E0,7.262131E2,3.6884193E1,3.50127E1,1.8736007E0,1.4018056E0,2.0397737E0,7.252088E2,1.0042281E0,1.0868248E0,3.579737E1,2.5012543E0,3.2511444E1,1.0016239E0,1.03815E0,7.019826E2,2.3226196E1,2.9835611E1,5.961758E0,1.2555115E0,1.2457427E0,1.0830929E0,3.142835E1,5.282994E2,1.7368326E2,1.8219492E1,5.0067043E0,2.654178E1,3.2938304E0,1.4185877E0,4.5431705E0,2.991121E1,1.5171411E0,5.0043677E2,2.7862593E1,4.0402992E1,1.3328027E2,1.7209087E1,1.0104047E0,2.6696813E0,2.3370228E0,1.3482403E0,2.519354E1,1.4251485E0,1.868682E0,2.4767349E0,2.0664358E0],"tree_param":{"num_deleted":"0","num_feature":"200","num_nodes":"51","size_leaf_vector":"1"}},{"base_weights":[-7.3700827E-3,1.3013982E-2,-2.3860416E-1,-3.0092876E-2,1.4597526E-1,5.639319E-1,-3.6394984E-1,-5.330755E-1,-8.585113E-3,1.1242896E-1,1.7773613E0,1.4458731E0,-4.292069E-1,8.2326734E-1,-4.4989717E-1,-7.516954E-1,4.8548913E-1,-2.2968067E-1,4.744775E-2,2.0030582E-1,-4.2243212E-1,-4.4673108E-2,8.9601284E-1,-4.498933E-1,2.880352E0,1.3851744E-1,-2.307884E-1,-1.2235033E-1,6.0609865E-1,-5.9699214E-1,2.5515604E-1,-8.458604E-1,1.377384E-1,4.8639745E-1,-4.2874727E-1,1.037119E0,-2.912568E-1,1.2807432E-1,-2.0525639E-1,8.7640464E-1,1.0253008E-1,2.4902284E-1,-5.451252E-1,-3.5152797E-2,-1.6651122E-1,2.589345E-1,1.046545E0,-7.0842296E-1,3.0742985E-1,1.0219561E0,-2.2988166E-1,-2.1850612E-2,-2.7861205E-1,-1.8154813E-1,-2.551975E-3,-1.8049425E-1,5.4306245E-1,3.95068E-1,-1.0059995E-1,9.32953E-2,3.276195E-3,-2.5713855E-1,-2.778673E-2,5.1167086E-2,5.586977E-1,-1.4538178E-1,6.504622E-2,-1.9629918E-1,2.617463E-1,3.800123E-2,-2.412458E-1,-1.7090434E-1,4.7992063E-1,5.0189584E-1,-1.0654839E-2,9.156732E-2,-2.2970039E-1],"categories":[],"categories_nodes":[],"categories_segments":[],"categories_sizes":[],"default_left":[0,0,0,0,0,0,0,0,0,0,0,0,0,0,0,0,0,0,0,0,0,0,0,0,0,0,0,0,0,0,0,0,0,0,0,0,0,0,0,0,0,0,0,0,0,0,0,0,0,0,0,0,0,0,0,0,0,0,0,0,0,0,0,0,0,0,0,0,0,0,0,0,0,0,0,0,0],"id":20,"left_children":[1,3,5,7,9,11,13,15,17,19,21,23,25,27,29,31,33,35,37,39,41,-1,-1,43,45,-1,-1,-1,-1,47,49,51,-1,-1,53,55,57,59,61,63,65,-1,67,-1,-1,-1,-1,69,71,73,75,-1,-1,-1,-1,-1,-1,-1,-1,-1,-1,-1,-1,-1,-1,-1,-1,-1,-1,-1,-1,-1,-1,-1,-1,-1,-1],"loss_changes":[3.7854877E0,4.236555E0,6.749961E0,6.0367007E0,9.703203E0,8.662233E0,6.1742473E0,5.4606633E0,6.65815E0,8.468581E0,8.780885E0,1.5142392E1,1.8972727E0,7.0033703E0,5.720113E0,2.5811892E0,5.5251737E0,8.777973E0,8.765029E0,1.0082685E1,4.3700776E0,0E0,0E0,4.1945815E-2,7.104664E-1,0E0,0E0,0E0,0E0,4.7245417E0,3.9421885E0,1.0977039E0,0E0,0E0,2.445355E-1,7.74811E0,7.841831E0,6.977486E0,7.5659785E0,1.31202965E1,9.202538E0,0E0,4.2587996E0,0E0,0E0,0E0,0E0,3.3088589E0,7.261888E0,2.8446841E0,2.2182493E0,0E0,0E0,0E0,0E0,0E0,0E0,0E0,0E0,0E0,0E0,0E0,0E0,0E0,0E0,0E0,0E0,0E0,0E0,0E0,0E0,0E0,0E0,0E0,0E0,0E0,0E0],"parents":[2147483647,0,0,1,1,2,2,3,3,4,4,5,5,6,6,7,7,8,8,9,9,10,10,11,11,12,12,13,13,14,14,15,15,16,16,17,17,18,18,19,19,20,20,23,23,24,24,29,29,30,30,31,31,34,34,35,35,36,36,37,37,38,38,39,39,40,40,42,42,47,47,48,48,49,49,50,50],"right_children":[2,4,6,8,10,12,14,16,18,20,22,24,26,28,30,32,34,36,38,40,42,-1,-1,44,46,-1,-1,-1,-1,48,50,52,-1,-1,54,56,58,60,62,64,66,-1,68,-1,-1,-1,-1,70,72,74,76,-1,-1,-1,-1,-1,-1,-1,-1,-1,-1,-1,-1,-1,-1,-1,-1,-1,-1,-1,-1,-1,-1,-1,-1,-1,-1],"split_conditions":[9.6E-2,5.1E-2,-2.48E-1,-3.2E-2,1.11E-1,4E-3,-9.7E-2,1.54E-1,-3.8E-2,8.8E-2,1.6E-2,2.2E-2,-7.4E-2,2.4E-2,2.47E-1,1.23E-1,-2.9E-2,-3.08E-1,3.7E-2,-1.57E-1,-2.55E-1,-4.4673108E-2,8.9601284E-1,6E-3,0E0,1.3851744E-1,-2.307884E-1,-1.2235033E-1,6.0609865E-1,2.52E-1,1.23E-1,-1.14E-1,1.377384E-1,4.8639745E-1,-1.9E-2,-1.4E-2,-1.81E-1,-3.9E-2,-1.28E-1,3.6E-2,-1.01E-1,2.4902284E-1,1.2E-1,-3.5152797E-2,-1.6651122E-1,2.589345E-1,1.046545E0,-1.39E-1,1.6E-2,-2.4E-2,-7E-3,-2.1850612E-2,-2.7861205E-1,-1.8154813E-1,-2.551975E-3,-1.8049425E-1,5.4306245E-1,3.95068E-1,-1.0059995E-1,9.32953E-2,3.276195E-3,-2.5713855E-1,-2.778673E-2,5.1167086E-2,5.586977E-1,-1.4538178E-1,6.504622E-2,-1.9629918E-1,2.617463E-1,3.800123E-2,-2.412458E-1,-1.7090434E-1,4.7992063E-1,5.0189584E-1,-1.0654839E-2,9.156732E-2,-2.2970039E-1],"split_indices":[132,81,52,154,172,82,87,16,105,109,126,54,54,95,59,95,103,24,20,39,2,0,0,115,102,0,0,0,0,10,132,54,0,0,188,124,99,81,71,42,40,0,54,0,0,0,0,152,61,124,28,0,0,0,0,0,0,0,0,0,0,0,0,0,0,0,0,0,0,0,0,0,0,0,0,0,0],"split_type":[0,0,0,0,0,0,0,0,0,0,0,0,0,0,0,0,0,0,0,0,0,0,0,0,0,0,0,0,0,0,0,0,0,0,0,0,0,0,0,0,0,0,0,0,0,0,0,0,0,0,0,0,0,0,0,0,0,0,0,0,0,0,0,0,0,0,0,0,0,0,0,0,0,0,0,0,0],"sum_hessian":[8.01459E2,7.3739856E2,6.4060455E1,5.574451E2,1.7995345E2,8.181123E0,5.587933E1,2.1883774E1,5.3556134E2,1.7737498E2,2.5784566E0,4.091695E0,4.089428E0,3.1931138E0,5.2686214E1,1.8232452E1,3.651321E0,1.07659065E2,4.2790228E2,1.5288217E2,2.4492807E1,1.3326517E0,1.2458049E0,2.0581172E0,2.0335777E0,1.0309561E0,3.0584717E0,1.8992052E0,1.2939085E0,4.3718506E1,8.96771E0,1.7196507E1,1.0359452E0,1.2834096E0,2.3679113E0,4.2560873E0,1.0340298E2,3.2477448E2,1.0312779E2,1.8309864E1,1.3457231E2,1.6708204E0,2.2821987E1,1.0019584E0,1.0561588E0,1.0314472E0,1.0021305E0,3.9115883E1,4.602625E0,3.045729E0,5.92198E0,1.8464799E0,1.5350027E1,1.3578609E0,1.0100503E0,1.4353166E0,2.8207705E0,1.9881129E0,1.0141486E2,1.26155525E2,1.9861894E2,1.4219897E1,8.89079E1,1.1354128E1,6.9557366E0,2.1399303E1,1.13173004E2,2.1689566E1,1.1324215E0,3.9895983E0,3.512628E1,3.0748463E0,1.5277785E0,1.5248795E0,1.5208495E0,3.1781697E0,2.7438104E0],"tree_param":{"num_deleted":"0","num_feature":"200","num_nodes":"77","size_leaf_vector":"1"}},{"base_weights":[-9.427262E-3,-4.9278527E-1,-2.544769E-4,-8.01568E-1,3.635936E-1,3.372249E-1,-1.9901112E-2,-2.8372747E-1,1.3518386E-1,1.4648087E0,1.0932847E-1,1.8503739E-3,-2.6045725E-1,-1.9464637E-1,2.2557418E0,-1.800385E-2,6.267852E-1,1.2473629E-1,-5.4338954E-2,-3.3140075E-1,1.1894403E0,-3.8993347E-2,3.0072386E0,-1.5330553E-1,1.3976731E0,1.49417E0,9.1242716E-2,-7.0784464E-2,7.0899475E-1,-4.459902E-1,3.6247572E-1,7.1079123E-1,-1.722346E-1,1.2399981E0,8.713898E-2,1.4463341E-1,-1.2607118E-1,7.2685456E-1,-5.5647235E-2,-7.962193E-2,6.6243744E-1,5.659717E-2,-9.584195E-2,-3.1251773E-2,9.0128325E-2,1.8651891E-2,6.4191616E-1,1.4583382E-1,-1.5886998E-1,-1.9103144E-1,3.4765846E-1],"categories":[],"categories_nodes":[],"categories_segments":[],"categories_sizes":[],"default_left":[0,0,0,0,0,0,0,0,0,0,0,0,0,0,0,0,0,0,0,0,0,0,0,0,0,0,0,0,0,0,0,0,0,0,0,0,0,0,0,0,0,0,0,0,0,0,0,0,0,0,0],"id":21,"left_children":[1,3,5,7,-1,9,11,-1,-1,13,15,17,19,-1,21,23,-1,25,27,29,31,-1,33,35,37,39,41,43,45,47,49,-1,-1,-1,-1,-1,-1,-1,-1,-1,-1,-1,-1,-1,-1,-1,-1,-1,-1,-1,-1],"loss_changes":[3.565026E0,8.854236E0,5.2454786E0,2.8239536E0,0E0,1.1024011E1,3.9122558E0,0E0,0E0,1.3561646E1,9.437871E0,4.747651E0,6.7716103E0,0E0,1.0232891E1,7.1145186E0,0E0,9.759093E0,5.9736013E0,4.9236097E0,7.8315716E0,0E0,1.1697575E1,5.932628E0,5.710412E0,6.9748335E0,8.528524E0,5.767458E0,9.160284E0,4.296649E0,7.9321127E0,0E0,0E0,0E0,0E0,0E0,0E0,0E0,0E0,0E0,0E0,0E0,0E0,0E0,0E0,0E0,0E0,0E0,0E0,0E0,0E0],"parents":[2147483647,0,0,1,1,2,2,3,3,5,5,6,6,9,9,10,10,11,11,12,12,14,14,15,15,17,17,18,18,19,19,20,20,22,22,23,23,24,24,25,25,26,26,27,27,28,28,29,29,30,30],"right_children":[2,4,6,8,-1,10,12,-1,-1,14,16,18,20,-1,22,24,-1,26,28,30,32,-1,34,36,38,40,42,44,46,48,50,-1,-1,-1,-1,-1,-1,-1,-1,-1,-1,-1,-1,-1,-1,-1,-1,-1,-1,-1,-1],"split_conditions":[-2.06E-1,3.9E-2,-1.31E-1,5.1E-2,3.635936E-1,-1.24E-1,3E-3,-2.8372747E-1,1.3518386E-1,-1.23E-1,4.6E-2,-1.36E-1,1.34E-1,-1.9464637E-1,-7.2E-2,1.1E-1,6.267852E-1,-2.56E-1,2.39E-1,3.4E-2,-1.2E-1,-3.8993347E-2,7.9E-2,-7.2E-2,4.2E-2,-3.1E-2,6.3E-2,1.83E-1,1E-1,-2.98E-1,-4E-2,7.1079123E-1,-1.722346E-1,1.2399981E0,8.713898E-2,1.4463341E-1,-1.2607118E-1,7.2685456E-1,-5.5647235E-2,-7.962193E-2,6.6243744E-1,5.659717E-2,-9.584195E-2,-3.1251773E-2,9.0128325E-2,1.8651891E-2,6.4191616E-1,1.4583382E-1,-1.5886998E-1,-1.9103144E-1,3.4765846E-1],"split_indices":[89,182,89,157,0,71,30,0,0,50,87,29,143,0,42,105,0,108,90,189,2,0,103,46,5,72,90,48,81,20,29,0,0,0,0,0,0,0,0,0,0,0,0,0,0,0,0,0,0,0,0],"split_type":[0,0,0,0,0,0,0,0,0,0,0,0,0,0,0,0,0,0,0,0,0,0,0,0,0,0,0,0,0,0,0,0,0,0,0,0,0,0,0,0,0,0,0,0,0,0,0,0,0,0,0],"sum_hessian":[8.0309595E2,1.3974788E1,7.8912115E2,1.2280277E1,1.6945108E0,4.25228E1,7.465983E2,1.1231649E1,1.0486279E0,6.236816E0,3.6285984E1,6.855978E2,6.1000584E1,1.7472562E0,4.48956E0,3.5024445E1,1.2615395E0,2.1474063E2,4.7085715E2,5.8890503E1,2.1100814E0,1.2735523E0,3.2160077E0,3.278296E1,2.2414844E0,4.085568E0,2.1065508E2,4.618149E2,9.042221E0,5.085016E1,8.040345E0,1.0584619E0,1.0516194E0,1.9049904E0,1.3110172E0,9.459352E0,2.3323606E1,1.0385739E0,1.2029105E0,1.3605888E0,2.7249792E0,1.7070705E2,3.994802E1,4.243654E2,3.744952E1,6.945611E0,2.0966098E0,3.7879426E0,4.7062214E1,3.6548848E0,4.3854604E0],"tree_param":{"num_deleted":"0","num_feature":"200","num_nodes":"51","size_leaf_vector":"1"}},{"base_weights":[-8.902879E-3,-3.7006697E-1,3.4897195E-3,3.129441E-1,-5.2196586E-1,1.46955475E-2,-5.3825265E-1,-8.004654E-1,7.434334E-2,4.611609E-3,6.516972E-1,5.1839185E-1,-7.947616E-1,-2.9251745E-1,2.558119E-1,5.3635967E-1,-4.0748584E-1,2.1245861E-2,-3.7616393E-1,-3.5510838E-1,1.290901E0,3.5652173E-1,-1.6111483E-1,-9.395929E-1,1.2617545E-1,1.1854008E-1,-6.992458E-1,1.981606E-3,3.8768494E-1,1.1687422E0,-5.861516E-1,2.1040085E-1,-2.3547593E-1,-1.803779E-1,1.8336937E0,-2.9334757E-1,-7.826681E-2,-2.4495895E-1,-1.8395618E-2,-1.14502266E-1,6.792134E-3,2.1646386E-1,-8.9443535E-2,7.47824E-1,-9.297147E-2,-2.3333417E-1,3.4889424E-1,1.4903224E-1,9.441512E-1],"categories":[],"categories_nodes":[],"categories_segments":[],"categories_sizes":[],"default_left":[0,0,0,0,0,0,0,0,0,0,0,0,0,0,0,0,0,0,0,0,0,0,0,0,0,0,0,0,0,0,0,0,0,0,0,0,0,0,0,0,0,0,0,0,0,0,0,0,0],"id":22,"left_children":[1,3,5,-1,7,9,11,13,15,17,19,21,23,-1,-1,-1,25,27,29,31,33,-1,-1,35,-1,-1,37,39,41,43,45,-1,-1,-1,47,-1,-1,-1,-1,-1,-1,-1,-1,-1,-1,-1,-1,-1,-1],"loss_changes":[3.59815E0,6.269507E0,4.7306557E0,0E0,4.1693926E0,4.899198E0,4.6923585E0,5.724925E0,7.988699E0,4.772888E0,8.107567E0,3.2477217E0,2.7014532E0,0E0,0E0,0E0,2.0742576E0,5.0941315E0,1.0917484E1,3.0024533E0,8.790895E0,0E0,0E0,5.6702614E-2,0E0,0E0,3.9825058E-1,5.4513345E0,8.467919E0,8.815313E0,1.0434944E1,0E0,0E0,0E0,9.085146E0,0E0,0E0,0E0,0E0,0E0,0E0,0E0,0E0,0E0,0E0,0E0,0E0,0E0,0E0],"parents":[2147483647,0,0,1,1,2,2,4,4,5,5,6,6,7,7,8,8,9,9,10,10,11,11,12,12,16,16,17,17,18,18,19,19,20,20,23,23,26,26,27,27,28,28,29,29,30,30,34,34],"right_children":[2,4,6,-1,8,10,12,14,16,18,20,22,24,-1,-1,-1,26,28,30,32,34,-1,-1,36,-1,-1,38,40,42,44,46,-1,-1,-1,48,-1,-1,-1,-1,-1,-1,-1,-1,-1,-1,-1,-1,-1,-1],"split_conditions":[-1.11E-1,-7.4E-2,1.13E-1,3.129441E-1,1.13E-1,1.01E-1,-1.56E-1,5E-3,-8.8E-2,1.82E-1,-4.5E-2,2.7E-2,1.29E-1,-2.9251745E-1,2.558119E-1,5.3635967E-1,-1E-2,1.25E-1,-2.35E-1,-1.46E-1,-5.3E-2,3.5652173E-1,-1.6111483E-1,6.9E-2,1.2617545E-1,1.1854008E-1,1.22E-1,-1.61E-1,2.1E-2,-7.9E-2,1.51E-1,2.1040085E-1,-2.3547593E-1,-1.803779E-1,0E0,-2.9334757E-1,-7.826681E-2,-2.4495895E-1,-1.8395618E-2,-1.14502266E-1,6.792134E-3,2.1646386E-1,-8.9443535E-2,7.47824E-1,-9.297147E-2,-2.3333417E-1,3.4889424E-1,1.4903224E-1,9.441512E-1],"split_indices":[90,72,84,0,10,84,22,127,89,101,12,35,88,0,0,0,143,101,10,28,88,0,0,181,0,0,93,81,95,59,28,0,0,0,64,0,0,0,0,0,0,0,0,0,0,0,0,0,0],"split_type":[0,0,0,0,0,0,0,0,0,0,0,0,0,0,0,0,0,0,0,0,0,0,0,0,0,0,0,0,0,0,0,0,0,0,0,0,0,0,0,0,0,0,0,0,0,0,0,0,0],"sum_hessian":[8.0263055E2,2.5669477E1,7.769611E2,1.921853E0,2.3747623E1,7.6216864E2,1.4792428E1,1.5954082E1,7.793542E0,7.5128284E2,1.0885806E1,2.6900954E0,1.2102332E1,1.4801114E1,1.1529678E0,1.1155934E0,6.6779485E0,7.2074133E2,3.0541521E1,4.3999405E0,6.4858656E0,1.5684401E0,1.1216553E0,1.1016414E1,1.0859189E0,1.6858728E0,4.992076E0,6.8569855E2,3.5042797E1,3.1082158E0,2.7433304E1,1.0897315E0,3.310209E0,1.4217992E0,5.0640664E0,1.0011714E1,1.004699E0,3.9803145E0,1.0117611E0,3.414351E1,6.5155505E2,2.353427E1,1.150853E1,1.2780235E0,1.8301922E0,2.5225065E1,2.2082384E0,3.1926486E0,1.871418E0],"tree_param":{"num_deleted":"0","num_feature":"200","num_nodes":"49","size_leaf_vector":"1"}},{"base_weights":[-8.9442255E-3,-6.422984E-1,-2.4220499E-3,1.4654134E-1,-2.6071107E-1,9.0010864E-1,-7.2740396E-3,-2.8260458E-1,6.867717E-1,-5.0389147E-1,2.0353675E-3,4.4051334E-2,-1.6419151E-1,-7.385675E-1,6.2009084E-1,3.689818E-2,-1.3415428E-1,-8.8849676E-1,1.4699103E-1,-1.5535916E-1,